{"class_names": ["grab", "idle", "open_palm", "slash"], "input_size": 126, "num_classes": 4, "test_accuracy": 0.9430803571428571, "weights": {"network.0.weight": [[-0.05711336061358452, -0.030718224123120308, -0.03483756631612778, 0.09758757799863815, -0.275515615940094, 0.26366984844207764, 0.16118547320365906, -0.17737829685211182, 0.18864330649375916, 0.05001011863350868, -0.2654016613960266, 0.09098459780216217, 0.20246051251888275, -0.11887962371110916, -0.06530468910932541, 0.19356825947761536, -0.042461249977350235, 0.037360139191150665, 0.11710493266582489, -0.22316181659698486, 0.10411089658737183, 0.006183522753417492, -0.17936646938323975, 0.10851684212684631, -0.09013137966394424, -0.028742726892232895, 0.2557629346847534, 0.060106031596660614, 0.09521295875310898, -0.057212039828300476, 0.09748111665248871, -0.15139184892177582, -0.0003001681761816144, -0.08364038169384003, -0.06282829493284225, 0.07792549580335617, -0.08108209073543549, 0.04539938643574715, 0.07312089204788208, -0.004498704802244902, 0.06173311173915863, 0.021010175347328186, 0.024563707411289215, -0.2586982250213623, 0.06992840021848679, -0.12913630902767181, -0.12925119698047638, 0.15550123155117035, -0.05122719705104828, -0.0579342320561409, 0.07165893912315369, -0.06371644884347916, -0.03844527527689934, 0.009134446270763874, -0.04509885981678963, -0.14900192618370056, 0.09009848535060883, 0.04076118394732475, -0.13742662966251373, 0.04110307618975639, 0.06692831963300705, -0.08780992776155472, 0.14002442359924316, -0.07042266428470612, -0.04839249700307846, 0.046187061816453934, -0.04042864218354225, -0.07216774672269821, -0.07245390862226486, 0.08580365031957626, -0.08231925964355469, -0.02301618829369545, 0.049695488065481186, -0.03918895125389099, -0.06166824698448181, -0.08567424863576889, 0.003468408714979887, -0.04606742784380913, 0.03357419744133949, 0.09382055699825287, 0.07502347975969315, 0.14268851280212402, -0.11203840374946594, 0.023895198479294777, 0.015183361247181892, -0.03727463260293007, 0.11213866621255875, 0.017012841999530792, -0.016345081850886345, -0.03764721751213074, -0.020881803706288338, 0.005378489848226309, 0.0450480692088604, 0.042389314621686935, -0.05927807465195656, 0.09967933595180511, 0.01533597894012928, -0.08393404632806778, 0.0003766003646887839, -0.06058916077017784, 0.02734846994280815, 0.08447910845279694, -0.062433138489723206, 0.00820678099989891, -0.04232393950223923, -0.0025304099544882774, -0.014390002004802227, -0.049321938306093216, -0.20937539637088776, -0.09500628709793091, -0.005062973592430353, -0.03548010438680649, 0.0013556326739490032, -0.10684878379106522, -0.05279252678155899, 0.055286649614572525, 0.004578340332955122, -0.022084496915340424, -0.07203606516122818, 0.047247204929590225, 0.012211243622004986, 0.05460207164287567, -0.07701856642961502, 0.04331577196717262, -0.025861307978630066, 0.033686019480228424], [-0.07798983156681061, -0.03232046589255333, -0.03541838377714157, -0.13455794751644135, -0.04559537395834923, -0.0067901164293289185, -0.010200153104960918, -0.06152106449007988, 0.09521868079900742, -0.08563702553510666, -0.0019892575219273567, 0.1777583807706833, -0.10216770321130753, -0.112718865275383, 0.05216483026742935, -0.0607217475771904, 0.1507955938577652, -0.11974602937698364, -0.014122970402240753, 0.012097763828933239, -0.06601810455322266, -0.07504808157682419, -0.09001366794109344, -0.0508754625916481, -0.098731130361557, -0.09957867860794067, 0.020930243656039238, 0.05139802768826485, 0.06549151241779327, -0.009598513133823872, -0.0004622862907126546, 0.1851608157157898, 0.12555520236492157, -0.07256714254617691, -0.0744374692440033, -0.1038205549120903, -0.2024754136800766, -0.15126781165599823, -0.11171942949295044, -0.0400882214307785, 0.08578667789697647, 0.06856624037027359, -0.12379641085863113, 0.12190763652324677, 0.19264055788516998, -0.16795389354228973, -0.038845691829919815, 0.09403455257415771, -0.14147795736789703, -0.08374018967151642, -0.05414041876792908, -0.03713781386613846, 0.16361315548419952, 0.12327323108911514, -0.10006024688482285, 0.07706522196531296, 0.11153434962034225, -0.13625161349773407, -0.13341155648231506, 0.08450695872306824, -0.15589366853237152, -0.16439810395240784, 0.01791771687567234, 0.05035918578505516, -0.07271534204483032, 0.08248909562826157, -0.04144200310111046, 0.06328754127025604, -0.0709630623459816, 0.08347389847040176, 0.09293872117996216, 0.06170515716075897, 0.07548126578330994, 0.10281681269407272, -0.09067890793085098, -0.12502972781658173, -0.029842568561434746, 0.022820673882961273, -0.008691459894180298, 0.1072508692741394, -0.058174632489681244, 0.04063147306442261, 0.0005720571498386562, -0.105036161839962, 0.026955923065543175, -0.05960169807076454, -0.052279382944107056, -0.08047069609165192, 0.019495731219649315, -4.963981336914003e-05, 0.08723431825637817, 0.06210053712129593, 0.014141127467155457, -0.011193185113370419, -0.08769664913415909, -0.01360332127660513, -0.02478787675499916, -0.08884715288877487, 0.031215345486998558, 0.08019501715898514, -0.025960322469472885, -0.04657655954360962, 0.06493640691041946, 0.044506385922431946, -0.014387604780495167, -0.04650552198290825, -0.07826393097639084, 0.03260357677936554, -0.05925511196255684, 0.009996816515922546, -0.014166798442602158, 0.10108677297830582, -0.00019944447558373213, 0.022512443363666534, 0.045100096613168716, 0.06382347643375397, -0.07430388033390045, 0.06048949435353279, -0.09015358984470367, -0.0083584263920784, -0.01850859262049198, -0.01928076148033142, -0.06443819403648376, 0.011420977301895618, 0.01024350430816412, 0.08710413426160812], [-0.0369735062122345, 0.08117701858282089, -0.036436013877391815, -0.041200555860996246, -0.0027672257274389267, 0.16855637729167938, -0.022466691210865974, 0.19372674822807312, 0.1481722891330719, -0.09173548221588135, 0.2910838723182678, 0.05538797751069069, -0.13477236032485962, 0.19640162587165833, -0.00949707068502903, -0.055691637098789215, 0.08027802407741547, -0.09951537102460861, -0.011009739711880684, 0.04251250624656677, 0.18729960918426514, 0.03045601397752762, 0.07688748091459274, 0.14666803181171417, 0.017195340245962143, -0.04330546781420708, -0.054964471608400345, 0.05284959822893143, 0.0045832074247300625, -0.019943956285715103, 0.1897982507944107, 0.19406196475028992, 0.11014072597026825, -0.024839628487825394, 0.15457557141780853, 0.0626123771071434, 0.029812538996338844, 0.14451459050178528, -0.04698659107089043, 0.16584917902946472, -0.008053983561694622, 0.012741226702928543, 0.23342661559581757, 0.0001234552328241989, 0.2038460075855255, -0.006409602705389261, -0.007161760237067938, 0.06651454418897629, -0.15169736742973328, 0.08065127581357956, -0.1431863158941269, 0.28027108311653137, 0.15492963790893555, -0.03070460632443428, 0.15553931891918182, 0.036814309656620026, 0.1248798593878746, 0.009541336447000504, -0.01625422015786171, -0.10141395032405853, -0.11984337121248245, 0.0766715556383133, -0.09029441326856613, -0.03611632063984871, 0.045465484261512756, -0.003048940561711788, 0.15826596319675446, -0.006401374004781246, -0.01186437625437975, 0.04964467138051987, 0.047222498804330826, -0.021005475893616676, -0.06712115556001663, -0.04429851844906807, 0.04471912607550621, -0.07971727848052979, -0.005897626280784607, 0.03817365691065788, -0.07532045990228653, -0.04142959415912628, 0.022076906636357307, 0.030717961490154266, 0.0635373592376709, -0.004692427348345518, -0.04412459209561348, 0.06600600481033325, -0.07465983182191849, -0.03641761839389801, 0.0410890094935894, -0.0359182171523571, -0.009933688677847385, 0.09493978321552277, 0.009132303297519684, -0.11590395867824554, 0.0725361555814743, -0.055902838706970215, -0.09316893666982651, -0.07333564013242722, -0.009294613264501095, 0.019702984020113945, 0.007274153642356396, 0.0047319140285253525, 0.016504429280757904, -0.06003187596797943, -0.00313456729054451, -0.09787971526384354, 0.10226858407258987, -0.054708391427993774, -0.05821783468127251, -0.010885998606681824, 0.10272257775068283, 0.003450546646490693, -0.024837592616677284, 0.07310494780540466, -0.06625223159790039, -0.029536813497543335, -0.09260833263397217, 0.025333156809210777, 0.01960732415318489, 0.02039480023086071, 0.09647277742624283, 0.054882459342479706, 0.1034582182765007, 0.07807906717061996, -0.03741387277841568, 0.06879882514476776], [0.022487644106149673, 0.008670068345963955, 0.044576529413461685, 0.050020553171634674, -0.1399795562028885, -0.012095263227820396, 0.012637751176953316, -0.06626420468091965, 0.03153064101934433, -0.015688030049204826, -0.13090182840824127, 0.0868232473731041, -0.1792064756155014, -0.0960543230175972, -0.0530734658241272, 0.1427232325077057, 0.1448344737291336, -0.0734562873840332, 0.18909591436386108, 0.032305289059877396, -0.014998219907283783, 0.20824003219604492, -0.13172520697116852, -0.03256344795227051, 0.24323055148124695, -0.031627483665943146, 0.0672469511628151, 0.09555791318416595, 0.312381774187088, 0.012506085447967052, 0.052059873938560486, 0.18939223885536194, -0.13181279599666595, 0.028353890404105186, -0.023274827748537064, -0.08047264814376831, 0.14166375994682312, -0.06792791932821274, -0.022094566375017166, 0.04993670806288719, 0.22721874713897705, 0.008807375095784664, -0.09169860929250717, 0.26258864998817444, -0.004335206001996994, 0.05066479369997978, 0.05205458030104637, 0.005921126343309879, 0.15434519946575165, 0.012614922598004341, 0.061068639159202576, 0.0320499949157238, 0.23168990015983582, -0.11957848817110062, 0.0005477296654134989, 0.06669452786445618, 0.022390346974134445, -0.017336321994662285, -0.0754598081111908, -0.056617412716150284, -0.040104154497385025, -0.15437725186347961, 0.03053627908229828, 0.005478065460920334, -0.01132886204868555, 0.07631964981555939, 0.008375164121389389, -0.10302791744470596, 0.07113777101039886, 0.10633563995361328, 0.03703431412577629, 0.11449432373046875, 0.03232145309448242, 0.018037373200058937, 0.10780313611030579, 0.0844210758805275, -0.10512964427471161, 0.0024224077351391315, -0.030794525519013405, -0.10192199051380157, -0.09101876616477966, 0.03335989639163017, 0.009811721742153168, 0.01028645783662796, -0.028885891661047935, -0.10737413913011551, -0.05792221054434776, 0.06339465081691742, 0.0033678212203085423, 0.08480341732501984, -0.019710266962647438, 0.03889656066894531, 0.018560554832220078, -0.032038915902376175, -0.06285630166530609, 0.031377166509628296, -0.008852099999785423, -0.0021766445133835077, -0.0041016400791704655, 0.025664573535323143, -0.09033486992120743, 0.043123237788677216, -0.030516518279910088, 0.083335742354393, -0.1053641214966774, 0.07345301657915115, 0.030658366158604622, 0.017618507146835327, 0.07771993428468704, 0.10129841417074203, -0.04620630666613579, 0.06824933737516403, 0.08279332518577576, -0.07432177662849426, -0.04287350922822952, -0.0031923979986459017, 0.0005789498682133853, -0.03658445551991463, 0.07932181656360626, 0.07543741911649704, -0.03871139511466026, 0.04691510647535324, -0.0029532609041780233, -0.016909245401620865, -0.021565031260252, -0.04076196625828743], [-0.012244741432368755, 0.06650717556476593, 0.05135674402117729, 0.21073171496391296, 0.016856538131833076, 0.15814165771007538, 0.09428935497999191, 0.045274246484041214, 0.04800684005022049, 0.03585170954465866, -0.0801556333899498, 0.13562169671058655, 0.09567349404096603, -0.03946013003587723, -0.03843717649579048, -0.03580684959888458, -0.06526309996843338, 0.12111490219831467, -0.061876554042100906, -0.04876689612865448, 0.08003654330968857, 0.010794641450047493, -0.13978835940361023, 0.04625346511602402, 0.14812448620796204, -0.15015622973442078, 0.12060879170894623, -0.06356056034564972, -0.11403165012598038, 0.03868008032441139, -0.19180364906787872, 0.07525426894426346, -0.029451832175254822, -0.12042531371116638, -0.05945177376270294, 0.17585936188697815, 0.038282133638858795, 0.05876326560974121, 0.1297510862350464, -0.2939390242099762, -0.12307962775230408, 0.025024494156241417, -0.20391573011875153, 0.02366367168724537, 0.11998286098241806, -0.10924407094717026, -0.13065657019615173, 0.04280874505639076, -0.16537778079509735, -0.0721849650144577, 0.18289805948734283, -0.24723273515701294, -0.14281807839870453, -0.03942878916859627, -0.08409633487462997, -0.1589004546403885, 0.08217708021402359, -0.2099033147096634, -0.13323833048343658, 0.04286596551537514, -0.02016865275800228, -0.16902855038642883, 0.05405537039041519, 0.03881703317165375, -0.002306538401171565, -0.06842567026615143, 0.12102391570806503, -0.01784486137330532, -0.03704181686043739, 0.05330144613981247, -0.047002483159303665, 0.03721962869167328, 0.006277731154114008, -0.0765807256102562, 0.03736894205212593, 0.01316659152507782, 0.013592451810836792, -0.048348817974328995, -0.18275272846221924, 0.1375826597213745, -0.22259138524532318, -0.10108362883329391, 0.1810845583677292, -0.03201255947351456, 0.08809925615787506, 0.042674627155065536, -0.04308438301086426, 0.045594003051519394, 0.010234523564577103, -0.05567551776766777, -0.09830334037542343, 0.05245722830295563, -0.04419394209980965, 0.03782787173986435, 0.03286285698413849, 0.003264692611992359, 0.16681386530399323, 0.010187868028879166, -0.11127188056707382, 0.1898145079612732, 0.013854659162461758, -0.0626525729894638, -0.1521366834640503, 0.1583113968372345, -0.024663018062710762, 0.07935718446969986, 0.012747851200401783, -0.013091168366372585, 0.10235286504030228, -0.01804196834564209, -0.0286069568246603, 0.05277785286307335, 0.0002850178279913962, 0.04683667793869972, 0.0015712105669081211, 0.12118490040302277, 0.09724964201450348, 0.00922667421400547, 0.04223453253507614, 0.13754922151565552, 0.09865003824234009, 0.015857204794883728, 0.22505000233650208, 0.062206756323575974, -0.1095418781042099, 0.06986762583255768], [0.03758055344223976, 0.03145011141896248, -0.07318582385778427, 0.12637726962566376, -0.012200281955301762, -0.08989264070987701, 0.1255962997674942, 0.012499942444264889, -0.03101065754890442, 0.19496193528175354, 0.01755574718117714, 0.10181350260972977, 0.10943719744682312, 0.11579099297523499, 0.10713829845190048, -0.10775088518857956, -0.08603836596012115, -0.1719702184200287, 0.12966912984848022, 0.07447666674852371, -0.12151452153921127, 0.17317406833171844, 0.006445462349802256, -0.011358199641108513, 0.3596261441707611, -0.030672747641801834, -0.04643213748931885, -0.12234000116586685, -0.04433053359389305, -0.06213439255952835, -0.04899289831519127, 0.10314199328422546, -0.05158574879169464, 0.16010843217372894, 0.025110885500907898, -0.12660935521125793, 0.2086985856294632, 0.028896626085042953, -0.1957911103963852, -0.1413637101650238, -0.02379191480576992, 0.04398259520530701, 0.00871428195387125, 0.0445161834359169, 0.15289406478405, 0.1486429125070572, 0.10129856318235397, -0.02033679373562336, 0.24061928689479828, -0.09902367740869522, 0.011546925641596317, 0.012597108259797096, -0.009030102752149105, 0.13191930949687958, -0.07328423112630844, 0.04020142927765846, 0.1470620185136795, -0.006279106717556715, -0.04491680860519409, 0.22170968353748322, 0.05947493389248848, -0.10041768103837967, 0.01585092954337597, -0.03327998146414757, -0.012926673516631126, -0.05660716071724892, 0.09755133837461472, 0.12803663313388824, -0.08444716781377792, 0.10830838978290558, 0.0030656205490231514, -0.01641261950135231, 0.11683148145675659, -0.11738486588001251, 0.09167254716157913, 0.12436501681804657, -0.052009355276823044, -0.01674397476017475, -0.02004716359078884, 0.11104540526866913, 0.10216199606657028, 0.10208278149366379, -0.07608695328235626, 0.09865587204694748, 0.07355785369873047, -0.013149159960448742, 0.11033564060926437, 0.049282852560281754, 0.043782465159893036, 0.027223380282521248, -0.0987328439950943, 0.05509432777762413, 0.029302744194865227, 0.06400314718484879, -0.21964861452579498, -0.05277473106980324, 0.06647157669067383, -0.17033711075782776, 0.12854833900928497, 0.07068637758493423, 0.02627573348581791, 0.044164471328258514, -0.07082683593034744, 0.15342910587787628, -0.04025907814502716, 0.0008987457258626819, -0.05083182454109192, -0.0418531559407711, 0.17633911967277527, -0.14121954143047333, 0.06665877252817154, 0.013906201347708702, 0.07133285701274872, 0.06378981471061707, -0.07172959297895432, 0.11106525361537933, -0.07578960061073303, 0.10325632244348526, -0.11244947463274002, -0.066026471555233, 0.10448744893074036, -0.08730088919401169, 0.0992773175239563, 0.08387314528226852, 0.12488140910863876, 0.048455413430929184], [0.02920040301978588, -0.011720113456249237, -0.03793187439441681, -0.0057373130694031715, 0.06152757629752159, 0.2399434894323349, -0.0010619089007377625, -0.004730937071144581, 0.326164573431015, -0.029050977900624275, 0.01834588684141636, 0.18444056808948517, -0.11067439615726471, 0.057004164904356, 0.14975200593471527, -0.07268083840608597, 0.06869854032993317, -0.00945363100618124, -0.03478793427348137, 0.0401756651699543, 0.24047914147377014, 0.1729535311460495, 0.12606731057167053, 0.30601900815963745, 0.20859837532043457, -0.0244684386998415, 0.15957966446876526, -0.07162646949291229, 0.05095221847295761, 0.06114863604307175, 0.04644852131605148, 0.12542462348937988, 0.13952165842056274, 0.03845516964793205, 0.16984272003173828, 0.08177168667316437, 0.11260753124952316, -0.029286662116646767, -0.030587034299969673, -0.09008189290761948, -0.022325225174427032, 0.07475674897432327, 0.12572930753231049, 0.15095987915992737, 0.11200930178165436, 0.02861545979976654, 0.11735634505748749, 0.03471408784389496, 0.138011634349823, -0.11219600588083267, 0.01983644627034664, -0.05938483774662018, 0.06150597706437111, 0.006676579359918833, 0.04730690270662308, 0.036076053977012634, 0.1397765576839447, -0.001285257749259472, -0.0683717280626297, 0.14352521300315857, 0.057169027626514435, -0.13384978473186493, 0.039765529334545135, -0.08791406452655792, 0.008499298244714737, -0.027656646445393562, 0.06168803572654724, 0.041551373898983, -0.09949706494808197, 0.011142134666442871, -0.008350223302841187, -0.10349391400814056, 0.11404289305210114, -0.11896780878305435, 0.005902308505028486, 0.14656519889831543, -0.031298134475946426, 0.003881592769175768, -0.09445160627365112, -0.06541487574577332, -0.06760023534297943, 0.08020137250423431, -0.21027913689613342, -0.01752132922410965, -0.011980247683823109, -0.07065512239933014, -0.05899730697274208, 0.08732367306947708, 0.014360756613314152, -0.0689954161643982, -0.0016591502353549004, -0.17600685358047485, 0.06015222519636154, 0.0285758376121521, -0.01925055868923664, -0.027980919927358627, -0.11078722774982452, -0.023647215217351913, 0.03259766101837158, 0.11995944380760193, -0.05347365885972977, 0.08536318689584732, -0.06923244893550873, -0.05532263219356537, 0.043532539159059525, -0.07880432903766632, 0.017462600022554398, -0.10423208028078079, -0.02244570478796959, -0.03861169144511223, 0.021266648545861244, 0.007245868910104036, 0.08284521102905273, 0.1972448229789734, -0.03338315337896347, 0.06214054673910141, -0.019787181168794632, -0.03962899371981621, 0.07524164021015167, -0.02771010994911194, 0.0224086195230484, 0.023389872163534164, 0.09016536176204681, 0.0850231871008873, 0.04680468887090683, 0.19365888833999634], [0.006475900299847126, -0.0389283187687397, -0.02141662687063217, 0.08419343084096909, -0.011228153482079506, 0.06555070728063583, 0.041645597666502, 0.13755804300308228, -0.04363340511918068, 0.05092187598347664, 0.2418208122253418, -0.016650089994072914, 0.009211456403136253, 0.322791188955307, -0.0015952193643897772, 0.03521295264363289, -0.031099418178200722, 0.025784047320485115, -0.02075546607375145, -0.14013497531414032, -0.07783599197864532, -0.11660401523113251, -0.16373321413993835, 0.09791336208581924, -0.12103501707315445, -0.14003129303455353, 0.11356761306524277, 0.10038632899522781, -0.0697275772690773, -0.08610733598470688, 0.01646551489830017, -0.2657742500305176, -0.11930155754089355, 0.0007401186740025878, -0.1835220456123352, -0.0543387308716774, -0.011683035641908646, -0.16213732957839966, 0.12167301774024963, -0.060239411890506744, 0.12789225578308105, -0.11448317021131516, 0.10145692527294159, -0.11469633877277374, -0.07343930751085281, -0.02271919883787632, -0.04792612046003342, -0.029383929446339607, 0.012573632411658764, 0.08586438745260239, -0.10989371687173843, 0.059620533138513565, 0.1935943067073822, -0.22101514041423798, 0.03916030377149582, 0.1175863966345787, -0.08698885142803192, 0.005100687500089407, 0.1766975075006485, -0.20831601321697235, 0.10144542157649994, 0.13775396347045898, -0.0472915880382061, 0.03224455192685127, -0.035253945738077164, 0.0817374736070633, -0.049773942679166794, 0.03132454678416252, 0.11838867515325546, 0.03288790211081505, 0.0475749745965004, -0.02776929922401905, 0.0019603543914854527, -0.10007470101118088, 0.058094680309295654, -0.04491801559925079, 0.06541936099529266, -0.10677197575569153, -0.06239668279886246, 0.06642614305019379, 0.10712725669145584, -0.044923875480890274, 0.005094385240226984, -0.042350396513938904, 0.0076688192784786224, -0.008386530913412571, 0.03528856858611107, -0.022184375673532486, -0.051548972725868225, -0.003987632226198912, -0.03175017237663269, 0.11911753565073013, 0.05654088035225868, -0.041431110352277756, -0.12878336012363434, 0.037164490669965744, -0.09344145655632019, -0.05771608278155327, -0.0722474604845047, -0.0405668169260025, -0.0537131130695343, 0.0498340018093586, -0.002568130614235997, 0.0730004534125328, -0.02393026277422905, 0.08117867261171341, -0.0068752760998904705, -0.056729506701231, 0.061624735593795776, -0.04868524521589279, -0.008905453607439995, -0.07215878367424011, 0.07659716159105301, -0.02849525958299637, 0.10117685794830322, 0.068135105073452, -0.06071031838655472, 0.018536236137151718, -0.11183073371648788, -0.03433758020401001, 0.0465993694961071, -0.0256778784096241, 0.023121045902371407, -0.07829460501670837, 0.07253288477659225, 0.05216548591852188], [-0.08479344844818115, -0.08426956087350845, -0.008748762309551239, -0.041239019483327866, 0.08976516872644424, 0.09473200887441635, -0.05973450839519501, 0.011205901391804218, 0.08910182118415833, 0.023482127115130424, -0.10762298852205276, 0.10698216408491135, -0.07368440181016922, -0.20937687158584595, -0.013622733764350414, -0.08463667333126068, 0.032419975847005844, -0.026987578719854355, -0.17999324202537537, 0.2496858835220337, -0.09621898084878922, -0.18677368760108948, 0.1318424940109253, -0.03814399242401123, -0.09712205827236176, 0.07465876638889313, -0.07778956741094589, -0.15565116703510284, 0.046537186950445175, -0.10129249095916748, -0.1934126615524292, 0.07768550515174866, 0.09846505522727966, -0.24944376945495605, 0.03129047155380249, -0.054418839514255524, -0.27053648233413696, -0.026986202225089073, -0.16269782185554504, -0.05459754168987274, 0.15174195170402527, 0.07039806991815567, -0.07211479544639587, 0.20951777696609497, 0.19592246413230896, -0.16656897962093353, 0.11698795855045319, -0.020281963050365448, -0.17432571947574615, 0.07328531891107559, -0.06289092451334, -0.13452693819999695, 0.05192449316382408, 0.15888315439224243, -0.027707159519195557, 0.20406702160835266, 0.1555895209312439, -0.12428134679794312, 0.066116563975811, -0.022853786125779152, -0.19432738423347473, -0.0004906917456537485, -0.03346792235970497, -0.005527002736926079, -0.08708206564188004, -0.03447464853525162, 0.11668718606233597, -0.02608640305697918, -0.09905224293470383, -0.03754642978310585, 0.11030516028404236, -0.027231493964791298, -0.040412552654743195, 0.09855219721794128, 0.08657579123973846, -0.13697989284992218, -0.04046700894832611, 0.03854064270853996, -0.01602286286652088, 0.09661939740180969, -0.09211765974760056, 0.0385553315281868, 0.12181761115789413, 0.023776385933160782, 0.012779532000422478, 0.03625640273094177, -0.06860043853521347, 0.10944268107414246, -0.047439634799957275, -0.05480702221393585, 0.02456950582563877, 0.01694345846772194, 0.01185277383774519, -0.05173122137784958, -0.03219639137387276, 0.031965550035238266, -0.08150903880596161, 0.05025913938879967, 0.08646143227815628, 0.008675217628479004, 0.01426501665264368, -0.032467782497406006, -0.07872136682271957, -0.06133023276925087, -0.03280583396553993, 0.05817131698131561, -0.09855910390615463, -0.05168306455016136, 0.034999895840883255, -0.04376159980893135, 0.011086818762123585, 0.029460258781909943, -0.15959380567073822, -0.02870788611471653, 0.03144034743309021, -0.07236339151859283, 0.06172049045562744, -0.07821860909461975, -0.03954220935702324, 0.023828288540244102, -0.037549469619989395, -0.11945576965808868, -0.010399574413895607, 0.049964789301157, -0.008666547946631908, -0.006465355399996042], [0.07521703839302063, 0.06788570433855057, 0.02093430794775486, 0.10367412120103836, -0.04126601666212082, -0.0046721165999770164, 0.03952565789222717, -0.04102802276611328, -0.04232747107744217, 0.09248600155115128, -0.14283540844917297, -0.008688976056873798, -0.04647452384233475, 0.025455761700868607, 0.09276330471038818, 0.11285611987113953, 0.2635045051574707, -0.002653993433341384, 0.21299491822719574, 0.11168841272592545, -0.0600605234503746, 0.2865237295627594, -0.02943911775946617, 0.056043971329927444, 0.19172728061676025, -0.13217557966709137, 0.023237144574522972, 0.10568276792764664, 0.23449814319610596, -0.04138405993580818, 0.058362919837236404, 0.15834592282772064, -0.04167911037802696, 0.14706048369407654, 0.01845107227563858, 0.036833979189395905, 0.11184141784906387, -0.004064898006618023, 0.06817752122879028, -0.09753841906785965, 0.19377374649047852, -0.050063736736774445, 0.044303979724645615, 0.03635788336396217, -0.008572320453822613, 0.056952837854623795, 0.011125055141746998, 0.04748891294002533, 0.18861685693264008, -0.043899569660425186, 0.07162512093782425, -0.1484961360692978, -0.02102808468043804, 0.036536503583192825, -0.20995818078517914, -0.019770275801420212, -0.026246175169944763, -0.06432604044675827, -0.21798564493656158, -0.02685999497771263, 0.0016722832806408405, -0.1308918297290802, 0.10783423483371735, -0.018886283040046692, -0.05391598492860794, 0.038106512278318405, -0.03148267790675163, 0.1212068721652031, 0.04083860665559769, -0.0006989481044001877, 0.19185607135295868, 0.09797219187021255, -0.008439148776233196, 0.2556939423084259, 0.09384698420763016, -0.11346766352653503, 0.028341686353087425, 0.07781367003917694, -0.029475348070263863, -0.09387806802988052, -0.021978342905640602, 0.0327308215200901, 0.01159452460706234, -0.027016105130314827, -0.05593673139810562, 0.0058444500900805, -0.08019134402275085, -0.06024324893951416, 0.08474963903427124, -0.03165233135223389, -0.1257096230983734, 0.0030403234995901585, 0.0195769052952528, -0.05804472789168358, -0.027291586622595787, -0.08867329359054565, -0.07204162329435349, 0.05574044957756996, -0.011400235816836357, 0.020095795392990112, -0.014105421490967274, 0.015772446990013123, -0.11441770941019058, -0.1503407061100006, -0.015440210700035095, -0.045445866882801056, -0.013356373645365238, 0.049118947237730026, -0.09268780797719955, -0.05446218326687813, -0.06749045103788376, -0.04851764813065529, 0.08765507489442825, -0.030896401032805443, -0.02715911902487278, -0.13693855702877045, 0.024355171248316765, -0.09042859077453613, -0.04588620364665985, -0.03762004151940346, -0.02395809441804886, 0.020670030266046524, -0.0018922026501968503, -0.026874661445617676, -0.0562271773815155, 0.08549775183200836], [-0.01506035029888153, 0.04434274882078171, 0.07774946838617325, -0.08114562928676605, 0.04761487618088722, 0.009845291264355183, 0.01265517994761467, -0.03638026863336563, 0.024414803832769394, 0.0051358663477003574, 0.0209786556661129, 0.12102207541465759, -0.12710312008857727, -0.22364138066768646, 0.06671018898487091, -0.22478535771369934, 0.14525291323661804, -0.03965083882212639, -0.0758531391620636, 0.18362347781658173, 0.028239192441105843, -0.17758558690547943, 0.14024560153484344, -0.0736972838640213, -0.15115509927272797, 0.22174809873104095, 0.05539476498961449, -0.09689982235431671, 0.1739577353000641, -0.05541059002280235, -0.26382049918174744, 0.19719943404197693, -0.00024451318313367665, -0.18914073705673218, 0.1109577938914299, 0.07501299679279327, -0.18188530206680298, 0.007168825715780258, -0.017396599054336548, -0.1616559624671936, 0.10663871467113495, -0.01467901561409235, -0.16924236714839935, 0.08018127828836441, 0.060876380652189255, -0.11894623190164566, 0.1709263175725937, 0.06013024225831032, -0.12373271584510803, 0.09418853372335434, -0.12998412549495697, -0.2448120266199112, 0.11725187301635742, 0.11359942704439163, -0.14889515936374664, 0.10731503367424011, 0.16527390480041504, -0.14457891881465912, 0.04032450169324875, 0.10971082001924515, -0.12151989340782166, 0.1170915886759758, -0.06105390563607216, -0.05069807171821594, 0.0134689100086689, -0.00929995160549879, -0.07890421152114868, -0.014344018884003162, -0.1280669867992401, -0.0428890623152256, -0.03584317862987518, 0.05972633510828018, -0.13153716921806335, -0.049265358597040176, -0.03173908218741417, -0.02229813113808632, -0.12481186538934708, 0.07120955735445023, -0.013523489236831665, 0.018768779933452606, 0.08018732070922852, -0.03431662917137146, -0.10145872086286545, -0.06162338703870773, -0.01568421721458435, -0.003861208213493228, -0.05797199904918671, 0.12425138801336288, 0.07476057857275009, -0.08891599625349045, -0.06837309896945953, 0.11681047827005386, -0.028463123366236687, 0.026560867205262184, 0.08622169494628906, 0.04904245212674141, 0.02512950450181961, 0.04031328111886978, -0.005554415751248598, 0.09788506478071213, -0.01593209058046341, 0.09527495503425598, -0.01321028359234333, 0.09013393521308899, -0.006719916593283415, 0.04759322851896286, -0.027671154588460922, -0.09810104966163635, -0.03644449636340141, -0.0442994199693203, -0.07251472026109695, -0.0008877390064299107, -0.07645341008901596, -0.04995088651776314, 0.006166937295347452, 0.027197984978556633, -0.03515632823109627, -0.08418509364128113, 0.05725667625665665, 0.08204542845487595, -0.05593620985746384, 0.003978330176323652, 0.07997412234544754, 0.057414717972278595, 0.09505990147590637, -0.01092125941067934], [-0.07906018197536469, -0.07010350376367569, 0.05796021223068237, -0.06313029676675797, -0.043160855770111084, 0.18274375796318054, -0.03986898064613342, 0.10031193494796753, 0.1304677426815033, -0.025841787457466125, -0.057488858699798584, 0.20979031920433044, -0.11895783990621567, -0.1992822289466858, 0.1415013074874878, -0.07447110861539841, -0.13592103123664856, -0.12308430671691895, -0.0967852845788002, 0.14976350963115692, -0.13331764936447144, 0.040362659841775894, 0.20874164998531342, -0.07564292103052139, 0.2201639711856842, 0.08866797387599945, -0.04758094623684883, -0.03814942017197609, -0.052047181874513626, -0.13249117136001587, -0.005762965884059668, 0.017984140664339066, -0.06348463147878647, 0.20787325501441956, 0.08411920070648193, -0.06715647131204605, 0.16314084827899933, 0.019365165382623672, -0.15024079382419586, 0.15326453745365143, -0.1740763783454895, -0.03627898916602135, 0.2145528942346573, -0.0023849247954785824, 0.1435505747795105, 0.20520558953285217, 0.10398374497890472, -0.028975769877433777, 0.12253179401159286, 0.03467600420117378, -0.20745427906513214, 0.22239215672016144, -0.06583286821842194, 0.1283087134361267, 0.200962096452713, 0.12023214250802994, 0.16018418967723846, 0.22521166503429413, 0.13328807055950165, -0.03735505789518356, 0.20069192349910736, 0.03684739023447037, 0.003598552430048585, -0.07811135053634644, -0.014271155931055546, -0.04362741857767105, -0.004266786854714155, 0.05859597027301788, -0.049299463629722595, -0.015266976319253445, 0.033425528556108475, -0.07776808738708496, -0.046067528426647186, -0.03838745504617691, -0.057149868458509445, -0.04001125320792198, 0.2079785019159317, -0.012198277749121189, 0.14876657724380493, 0.058024488389492035, 0.12340270727872849, 0.07874123752117157, -0.11269982159137726, 0.09542006999254227, 0.04855726286768913, 0.008650267496705055, 0.03924701735377312, 0.003187349531799555, 0.041367482393980026, 0.0522802472114563, 0.07033323496580124, 0.0047101108357310295, 0.04874196648597717, -0.0016028955578804016, 0.05655912682414055, 0.006324907299131155, 0.006940694525837898, -0.00783099327236414, 0.015596693381667137, -0.046943750232458115, 0.03717228025197983, 0.018798159435391426, -0.0341847762465477, -0.022517027333378792, -0.027258319780230522, -0.04182939603924751, 0.04707486554980278, -0.041111741214990616, -0.005146383307874203, -0.027481725439429283, -0.04660253971815109, -0.02081577107310295, 0.06824150681495667, -0.06015810742974281, -0.10178466141223907, 0.04741509258747101, -0.04587111249566078, -0.02538331225514412, -0.040661510080099106, -0.0422065444290638, -0.05704348161816597, 0.06849697977304459, 0.035379230976104736, 0.018123306334018707, -0.029956962913274765, 0.06913495063781738], [-0.01265943143516779, 0.01807156763970852, 0.060510531067848206, 0.04045548662543297, 0.038081489503383636, 0.1843106895685196, 0.1091199442744255, -0.09188243001699448, 0.3744465410709381, 0.053661711513996124, -0.09858933091163635, 0.2668042778968811, 0.05839519575238228, -0.016786575317382812, 0.31245723366737366, 0.0144266402348876, 0.1382778137922287, 0.13550148904323578, 0.03279056027531624, 0.06339138746261597, 0.2019268423318863, 0.037626512348651886, -0.029172580689191818, 0.19712790846824646, 0.18266531825065613, -0.1282794177532196, 0.23117001354694366, -0.12592867016792297, 0.1456071436405182, 0.1129748523235321, -0.15473783016204834, 0.007480452302843332, 0.09662572294473648, 0.067559152841568, -0.07547527551651001, 0.11130143702030182, -0.09619926661252975, -0.154647096991539, -0.10705922544002533, -0.19740228354930878, 0.14747023582458496, -0.04267631098628044, -0.17695927619934082, 0.0808640867471695, 0.16454249620437622, -0.042628489434719086, -0.11785002052783966, -0.02319556660950184, -0.007271595299243927, -0.1943632960319519, -0.04855728894472122, -0.20201517641544342, 0.021745633333921432, -0.022059211507439613, -0.13070102035999298, -0.05249590426683426, -0.03480653092265129, -0.08725012093782425, -0.05190210044384003, -0.030830558389425278, -0.06663195043802261, -0.10721789300441742, -0.188376322388649, -0.020908979699015617, -0.06000351160764694, 0.08333788067102432, -0.13622310757637024, -0.048835404217243195, -0.020524241030216217, -0.09614015370607376, 0.022055234760046005, -0.05455654487013817, -0.13874980807304382, 0.05778495594859123, -0.04908013343811035, -0.09059243649244308, -0.052025239914655685, -0.03132515400648117, -0.0477873831987381, 0.1255544126033783, -0.08203928172588348, 0.053948141634464264, 0.1412782371044159, -0.10202698409557343, -0.0370633639395237, 0.06538312137126923, -0.10033880919218063, -0.019861344248056412, -0.03127528354525566, 0.01388244517147541, 0.0018723778193816543, 0.025346338748931885, -0.04203055799007416, 0.06960990279912949, 0.07909003645181656, -0.05858369171619415, 0.04947374761104584, 0.07871035486459732, -0.02320294827222824, 0.08796116709709167, 0.06347477436065674, -0.04210163652896881, -0.08592028170824051, -0.04432632774114609, -0.07633183896541595, 0.04928532615303993, 0.022254537791013718, -0.036302514374256134, 0.06329333037137985, 0.03782922774553299, -0.09559835493564606, -0.06531815230846405, 0.057212572544813156, -0.05290531367063522, 0.05013003572821617, -0.11021352559328079, 0.038415808230638504, 0.11200553923845291, -0.1525990068912506, -0.02117512933909893, 0.11046946048736572, -0.10971765965223312, -0.0016729473136365414, 0.04548231139779091, 0.015728220343589783, 0.09925088286399841], [-0.007867238484323025, -0.05492045730352402, 0.03683731332421303, 0.07106023281812668, 0.04341853782534599, -0.03497440740466118, 0.05582659691572189, 0.07339267432689667, -0.041166823357343674, 0.16643837094306946, 0.2312643826007843, -0.1013893410563469, 0.14214086532592773, 0.3191107511520386, -0.16744457185268402, 0.05490514636039734, -0.1314537078142166, 0.13017064332962036, -0.08977428078651428, -0.14887012541294098, -0.051906634122133255, -0.18095402419567108, 0.010536802932620049, 0.10139885544776917, -0.1921839416027069, -0.06329600512981415, -0.05398544296622276, 0.03967931494116783, -0.25661706924438477, 0.0822269469499588, -0.023107610642910004, -0.076891228556633, 0.001932825893163681, -0.09761374443769455, -0.003964713308960199, 0.054140910506248474, -0.12856951355934143, 0.03018837422132492, 0.0568363331258297, 0.044535163789987564, -0.02520236000418663, -0.10949418693780899, 0.011171730235219002, -0.1298311948776245, -0.07807532697916031, 0.06953862309455872, 0.03166670724749565, -0.08627774566411972, 0.03742878884077072, 0.13001278042793274, -0.05627775937318802, 0.10527954250574112, -0.006988277658820152, -0.08474155515432358, 0.06091901659965515, 0.191842719912529, -0.1394229233264923, 0.02447088621556759, 0.22705326974391937, -0.17414849996566772, -0.11953649669885635, 0.13781434297561646, -0.017041053622961044, 0.021563872694969177, -0.08130469918251038, -0.07688457518815994, -0.07355206459760666, 0.01020385418087244, -0.07746896892786026, -0.02871573530137539, -0.013483775779604912, -0.05684402585029602, -0.008309711702167988, -0.09957952052354813, -0.032349731773138046, -0.08107849210500717, -0.025509903207421303, -0.08518070727586746, -0.021870842203497887, -0.004494203720241785, 0.10328608751296997, 0.04792623594403267, -0.03703854978084564, -0.05969490110874176, 0.004767740610986948, -0.044919539242982864, 0.00889770407229662, -0.09275519102811813, -0.03704509139060974, 0.003037392860278487, -0.013050621375441551, -0.0282681155949831, 0.07715227454900742, 0.0003863740130327642, -0.06252362579107285, 0.04354722797870636, 0.03663422912359238, -0.02231554314494133, -0.009827805683016777, -0.05027833953499794, 0.025827499106526375, 0.028762470930814743, 0.002408035099506378, 0.07728473097085953, -0.053545188158750534, -0.09629689902067184, 0.1334231197834015, 0.008343452587723732, 0.07532613724470139, 0.02239230088889599, 0.11234226077795029, -0.020623303949832916, -0.07856094092130661, 0.014981783926486969, -0.019496141001582146, 0.056467216461896896, -0.04600512981414795, -0.03910873830318451, 0.0068085393868386745, -0.004694778937846422, -0.023075127974152565, 0.0018116567516699433, 0.10466156154870987, 0.04494733363389969, -0.009794593788683414, -0.06367489695549011], [-0.016109341755509377, -0.08362787216901779, -0.06193537637591362, 0.057011913508176804, -0.15085367858409882, 0.22790037095546722, -0.03649765998125076, -0.07121436297893524, 0.28541579842567444, -0.0071796998381614685, 0.0013323217863216996, 0.30607160925865173, 0.10239945352077484, -0.165652334690094, 0.18517307937145233, -0.051163408905267715, -0.17949558794498444, 0.0026792099233716726, -0.19547978043556213, -0.07578707486391068, -0.07452917844057083, -0.16316549479961395, -0.06885658949613571, 0.12249843776226044, -0.15773752331733704, 0.04358149319887161, 0.055331844836473465, 0.047617122530937195, -0.1576801836490631, 0.027794478461146355, -0.192058727145195, -0.19023501873016357, -0.08914387971162796, -0.20407909154891968, -0.18636202812194824, -0.031177900731563568, 0.0027565264608711004, -0.13991403579711914, 0.11621060967445374, 0.01707703061401844, -0.19480708241462708, 0.0023259874433279037, -0.043542131781578064, -0.12466166913509369, -0.012646270915865898, -0.11583717912435532, -0.10557936131954193, -0.013987068086862564, -0.03570866584777832, 0.0713447630405426, -0.026131026446819305, -0.047485701739788055, -0.02888617105782032, -0.09362553060054779, -0.12420963495969772, 0.014634864404797554, -0.12983210384845734, -0.021754959598183632, 0.08936496824026108, -0.10043910145759583, 0.18496093153953552, 0.24552080035209656, -0.11005442589521408, 0.0721486359834671, -0.08755674213171005, 0.07400086522102356, 0.07766249030828476, -0.05714865028858185, 0.03168739750981331, 0.056225117295980453, 0.03726738691329956, -0.0340493768453598, 0.05507391691207886, -0.08746505528688431, -0.006020309869199991, 0.05197400599718094, -0.06289894133806229, 0.011983315460383892, -0.06299600005149841, 0.15049633383750916, -0.025032980367541313, 0.14042040705680847, 0.03338559344410896, 0.0034347877372056246, 0.03661990165710449, -0.033627334982156754, -0.08752769976854324, -0.05615038797259331, -0.031725410372018814, 0.04157603904604912, -0.02746436931192875, -0.02436562068760395, -0.01713571324944496, -0.0644889548420906, -0.014316492713987827, -0.023780634626746178, -0.0354771763086319, 0.013380586169660091, -0.0194445438683033, -0.018330050632357597, 0.09804568439722061, -0.05369563028216362, 0.013198446482419968, -0.010245024226605892, 0.0689641535282135, -0.10694016516208649, -0.026463644579052925, -0.0019512417493388057, -0.09282875061035156, -0.059716928750276566, 0.06134389340877533, -0.04141737520694733, -0.0008013262413442135, -0.022060465067625046, 0.0831214040517807, 0.01963336393237114, 0.1117100864648819, -0.1205858439207077, -0.05855576694011688, -0.005840103141963482, -0.07194655388593674, -0.14540404081344604, -0.05379771068692207, -0.04910629242658615, -0.011451550759375095, 0.04880398511886597], [0.04043552279472351, 0.07608006149530411, -0.062014590948820114, 0.012291981838643551, -0.07691888511180878, -0.015987463295459747, -0.08986103534698486, -0.06836648285388947, 0.10244619846343994, -0.11607031524181366, -0.20108212530612946, 0.11778964102268219, -0.13316747546195984, -0.26724332571029663, 0.14912545680999756, -0.06119910255074501, 0.06490030884742737, -0.1976466029882431, -0.17548765242099762, 0.25937914848327637, -0.03593415394425392, -0.11848276853561401, 0.13526971638202667, -0.06650933623313904, -0.14132975041866302, 0.18123343586921692, -0.09861593693494797, -0.21900296211242676, 0.059041108936071396, 0.002042255364358425, -0.1176430955529213, 0.1331416368484497, 0.04922498017549515, -0.17147555947303772, 0.0702386274933815, 0.001350229256786406, -0.2925511300563812, 0.010636626742780209, -0.07778207957744598, -0.21177080273628235, 0.09378732740879059, 0.09270747750997543, -0.15298455953598022, 0.21918697655200958, 0.11294566839933395, -0.16207295656204224, 0.16341209411621094, 0.042823296040296555, -0.20885075628757477, 0.04478120058774948, 0.026999449357390404, -0.2608058452606201, 0.2015790492296219, 0.1803046464920044, -0.04022256284952164, 0.13992853462696075, 0.07637395709753036, -0.018132882192730904, 0.06371352076530457, 0.004072036128491163, -0.10223500430583954, 0.059449780732393265, 0.03524108976125717, -0.053566236048936844, 0.031475089490413666, -0.0715094804763794, 0.045920561999082565, -0.14790719747543335, -0.008830622769892216, -0.020408539101481438, -0.09059320390224457, 0.07701568305492401, -0.06907828897237778, -0.1678307205438614, 0.03844563663005829, -0.01188611425459385, -0.22207485139369965, 0.06490959227085114, -0.01656760275363922, 0.06864065676927567, -0.02914213202893734, -0.013128653168678284, -0.019116852432489395, -0.0994824767112732, -0.014452619478106499, 0.011125108227133751, 0.007521924562752247, -0.027500655502080917, 0.035968199372291565, -0.04530583694577217, 0.05597629025578499, 0.020477283746004105, 0.08575819432735443, -0.053194575011730194, 0.011279556900262833, -0.027043435722589493, 0.08269896358251572, 0.049256302416324615, -0.06554868817329407, 0.07961265742778778, 0.05159071832895279, 0.08352214843034744, 0.04651626944541931, 0.07109976559877396, 0.03127250075340271, 0.027100924402475357, 0.08681826293468475, -0.0792999416589737, 0.06062803044915199, -0.02502681314945221, -0.003865298582240939, -0.06302656978368759, -0.008036315441131592, 0.056718483567237854, 0.07420171052217484, 0.030291983857750893, 0.04181904345750809, -0.11968624591827393, -0.033395178616046906, -0.10340986400842667, -0.07004621624946594, -0.048591699451208115, 0.0378011018037796, -0.011986603029072285, 0.04266780987381935, 0.03412865102291107], [0.05504157021641731, -0.06165698543190956, 0.02958778850734234, 0.021804245188832283, 0.1183651015162468, 0.2004120796918869, -0.0006659797509200871, 0.07185360044240952, 0.24534568190574646, -0.057378172874450684, 0.04282310977578163, 0.0904141440987587, -0.20906807482242584, -0.15113404393196106, 0.09806011617183685, -0.019046898931264877, 0.2979176640510559, -0.14260579645633698, 0.09198930859565735, 0.33358171582221985, 0.008657559752464294, 0.23312914371490479, 0.17682628333568573, -0.11943350732326508, 0.20445293188095093, 0.060213327407836914, -0.05810758098959923, -0.023444607853889465, 0.07375066727399826, -0.11713632196187973, 0.06270654499530792, 0.21488729119300842, -0.03034612350165844, 0.03248674422502518, 0.1190534383058548, -0.008751263841986656, 0.11678329110145569, 0.047883570194244385, -0.038823578506708145, 0.035108909010887146, 0.10980303585529327, -0.02312156744301319, -0.0010933176381513476, 0.11094516515731812, 0.13157138228416443, 0.02890200726687908, -0.04315175861120224, 0.03391128033399582, 0.05505789816379547, -0.16572405397891998, -0.059680141508579254, -0.13869014382362366, -0.009864008985459805, 0.011982064694166183, -0.11814072728157043, -0.23833757638931274, 0.09874940663576126, -0.1005512923002243, -0.2884138822555542, 0.11975773423910141, -0.016107050701975822, -0.44426172971725464, -0.023290036246180534, 0.04203936457633972, 0.06864254176616669, 0.009227321483194828, -0.06924016773700714, 0.0600280687212944, 0.08840569108724594, -0.0739755630493164, -0.011097916401922703, 0.09982185065746307, 0.030793778598308563, 0.07938338071107864, 0.028510605916380882, -0.025534536689519882, -0.0966954231262207, 0.11151418089866638, 0.005601882003247738, -0.07299193739891052, -0.037051722407341, -0.009783482179045677, -0.012890767306089401, -0.05219138413667679, -0.09417563676834106, 0.0826747715473175, 0.06390632688999176, -0.014409761875867844, 0.03113895282149315, 0.023305213078856468, -0.08511316776275635, 0.0452437624335289, 0.019399188458919525, -0.09316370636224747, -0.012585203163325787, -0.0545988455414772, -0.032277725636959076, 0.1190299317240715, 0.05833464115858078, -0.05283769965171814, 0.07443882524967194, 0.09853087365627289, 0.04395497217774391, 0.0332355871796608, 0.022618407383561134, 0.038924165070056915, 0.029185840860009193, 0.02393953688442707, 0.01912492886185646, -0.02698567695915699, -0.00640583410859108, -0.02511318027973175, 0.06193919852375984, -0.04203777387738228, -0.004687510430812836, -0.05215071141719818, -0.10384509712457657, 0.027595143765211105, -0.1176479309797287, -0.013255581259727478, -0.031695179641246796, 0.01840866357088089, 0.01277906447649002, -0.033419664949178696, -0.09570474177598953, -0.025694478303194046], [0.04579540714621544, 0.025595907121896744, 0.05773383751511574, -0.09250231832265854, -0.07143594324588776, 0.026972003281116486, -0.07956961542367935, -0.22723397612571716, 0.02039903774857521, -0.025988012552261353, -0.23295675218105316, 0.10642411559820175, 0.013307634741067886, -0.1864725649356842, 0.023203333839774132, -0.07146767526865005, 0.02412051521241665, -0.037145067006349564, -0.0948260948061943, 0.04668838530778885, 0.10496310144662857, -0.22445844113826752, 0.18296213448047638, 0.0028847302310168743, -0.19666463136672974, 0.006764855235815048, -0.051764845848083496, -0.029235413298010826, 0.006102919578552246, -0.04299021512269974, -0.051583267748355865, 0.09671783447265625, 0.12267230451107025, -0.16992437839508057, 0.16105234622955322, 0.024117451161146164, -0.16665785014629364, 0.06881288439035416, -0.08917050063610077, 0.16418620944023132, 0.04827160760760307, 0.054235219955444336, 0.10726281255483627, 0.22738806903362274, 0.30671727657318115, -0.15441206097602844, 0.00857723318040371, 0.10839025676250458, -0.2797216773033142, 0.0899830013513565, -0.1365928053855896, 0.2384171038866043, 0.18831993639469147, 0.0993984267115593, 0.0887971967458725, 0.19022653996944427, 0.2749420404434204, 0.04201744869351387, 0.10662493854761124, 0.028756652027368546, -0.19711124897003174, 0.07523217797279358, -0.02581505849957466, 0.03856920450925827, 0.05438825860619545, -0.008199390023946762, 0.053142763674259186, 0.0648796334862709, -0.10903988033533096, -0.1485941857099533, -0.052558764815330505, 0.006019322667270899, -0.030936041846871376, 0.012215359136462212, 0.04634765535593033, -0.02635686844587326, -0.028893988579511642, 0.03311596065759659, 0.04329393059015274, -0.02766033262014389, 0.08285783976316452, -0.0030559177976101637, 0.006698864046484232, -0.10641792416572571, 0.13129809498786926, 0.0614808015525341, -0.0965745598077774, 0.10994292795658112, -0.010072993114590645, -0.03531865030527115, -0.050247672945261, 0.007501215673983097, -0.02605563960969448, 0.1327313929796219, 0.029048949480056763, 0.04897431656718254, 0.041431210935115814, -0.07750267535448074, 0.020735636353492737, 0.006476387847214937, -0.05223962292075157, 0.06197424978017807, 0.006087200716137886, 0.01945372112095356, -0.03864911198616028, 0.011353612877428532, -0.0038294438272714615, -0.018770871683955193, -0.05950105935335159, 0.0009738937369547784, -0.08825323730707169, -0.03721845895051956, -0.014237918891012669, 0.03904641419649124, -0.005381908733397722, 0.06055322289466858, -0.07521380484104156, -0.022364065051078796, -0.02634689025580883, -0.08377216756343842, -0.002764857141301036, -0.01739424839615822, -0.02627960778772831, 0.04574489966034889, 0.10651324689388275, 0.08446444571018219], [0.010268284007906914, -0.06107674911618233, 0.07180722802877426, 0.13850469887256622, 0.001857051975093782, 0.10781247168779373, 0.11270830780267715, 0.034382812678813934, 0.15470793843269348, 0.09300869703292847, -0.022825123742222786, 0.16922712326049805, 0.09539453685283661, -0.06609351933002472, 0.03627282381057739, -0.08847255259752274, 0.092852883040905, -0.05825886130332947, 0.005266535561531782, 0.26661059260368347, 0.02511937916278839, 0.0525333397090435, 0.2349463701248169, 0.09654130041599274, -0.05621768906712532, 0.1629638373851776, -0.04240981861948967, -0.07415802776813507, 0.12331151217222214, 0.048137106001377106, 0.009656245820224285, 0.26229792833328247, 0.15500283241271973, -0.043700892478227615, 0.21234393119812012, -0.02802988514304161, -0.2946690618991852, -0.003784066066145897, -0.11965521425008774, -0.06119747832417488, 0.09706364572048187, 0.1427622139453888, -0.06460272520780563, 0.17207027971744537, 0.056197572499513626, -0.08996115624904633, 0.09172075241804123, 0.06988166272640228, -0.3078863024711609, -0.06562551856040955, -0.08368045836687088, -0.059348512440919876, 0.08915369212627411, 0.22009089589118958, -0.05646944046020508, 0.1559925526380539, 0.13057249784469604, -0.21966272592544556, 0.04834330081939697, -0.02439950965344906, -0.2775087058544159, -0.14799922704696655, -0.04006842523813248, -0.08826245367527008, 0.08695245534181595, -0.08033567667007446, -0.01547760609537363, 0.0443570576608181, -0.03720438852906227, -0.0629061684012413, 0.005804740823805332, -0.009481701999902725, 0.0282081738114357, 0.06499184668064117, -0.016004055738449097, 0.014362309128046036, 0.09298328310251236, 0.06508993357419968, 0.05102064460515976, -0.01588788814842701, -0.05399531126022339, 0.09894254058599472, -0.13421228528022766, 0.038077324628829956, 0.16167894005775452, -0.04841672256588936, 0.036151692271232605, 0.020532850176095963, -0.06392109394073486, -0.0709608793258667, -0.07119664549827576, -0.06673764437437057, 0.05604386329650879, 0.05392760783433914, -0.06155269220471382, 0.002369614550843835, 0.05008041486144066, -0.03719303384423256, -0.0558428056538105, 0.0330403670668602, -0.033136364072561264, -0.07852941006422043, 0.04174528643488884, 0.04323961213231087, -0.10079736262559891, 0.09777975082397461, -0.051473040133714676, -0.05784304440021515, 0.06936871260404587, 0.0036958749406039715, -0.005398080684244633, -0.01631767675280571, 0.06344139575958252, 0.05800982937216759, -0.16649891436100006, -0.06380579620599747, 0.019912121817469597, -0.02782020904123783, -0.02688772976398468, -0.05326443910598755, 0.06247236952185631, -0.040658749639987946, 0.02112138271331787, -0.07489175349473953, 0.022485896944999695, -0.04955776780843735], [-0.013261022977530956, -0.05049438774585724, 0.07300982624292374, 0.09133169800043106, 0.056408897042274475, -0.06907515972852707, 0.07985060662031174, 0.12579329311847687, -0.08698422461748123, 0.19856950640678406, 0.061562683433294296, -0.05161474645137787, 0.17223423719406128, -0.016591982915997505, -0.009256342425942421, -0.21170088648796082, -0.06927420943975449, 0.1359727829694748, -0.2864339351654053, -0.180946946144104, 0.12355682253837585, -0.07042832672595978, -0.010520560666918755, 0.10277675092220306, -0.13575470447540283, 0.1684260070323944, 0.0682203620672226, -0.27078455686569214, -0.19698241353034973, 0.13733930885791779, -0.07362398505210876, -0.25690507888793945, 0.036396801471710205, -0.03495275229215622, -0.13556012511253357, 0.06518900394439697, 0.07277198880910873, 0.09779159724712372, 0.017541319131851196, -0.13149651885032654, -0.1824839562177658, 0.06424327939748764, -0.04400661215186119, -0.12920358777046204, -0.011540314182639122, 0.07986540347337723, 0.04271019250154495, -0.1462784707546234, 0.02955509163439274, 0.06298879534006119, 0.07882767915725708, -0.04059885814785957, -0.20161649584770203, -0.015863526612520218, 0.09855524450540543, -0.035271260887384415, -0.09956950694322586, 0.14680299162864685, 0.05192439630627632, 0.023683182895183563, 0.03620515763759613, 0.19977477192878723, 0.043352242559194565, -0.07933526486158371, -0.01763644628226757, -0.014584902673959732, -0.09095653891563416, -0.05370974540710449, 0.08449941873550415, -0.04561692103743553, -0.0027392031624913216, 0.03666720539331436, -0.04324493184685707, 0.1182384267449379, -0.08631391078233719, -0.09548386186361313, 0.1124987080693245, -0.12606894969940186, 0.13938100636005402, -0.08591580390930176, -0.03674574941396713, 0.16643919050693512, -0.025441652163863182, 0.0657472088932991, 0.11516294628381729, 0.0034839424770325422, -0.071534663438797, 0.09348957240581512, -0.08150656521320343, 0.05903824791312218, 0.05861419811844826, -0.014860912226140499, 0.07324659079313278, -0.0016817933646962047, 0.025695690885186195, 0.027919795364141464, 0.00014722818741574883, 0.022002816200256348, -0.00944718811661005, 0.030021892860531807, 0.12138266861438751, -0.07078757882118225, 0.0833117812871933, -0.05522679537534714, -0.10524726659059525, 0.08935829997062683, -0.07900122553110123, -0.09242486953735352, -0.083412766456604, 0.09938763082027435, -0.029371773824095726, -0.08624628186225891, 0.09715182334184647, 0.1002286896109581, -0.10255766659975052, -0.036243073642253876, -0.005232481751590967, 0.047414910048246384, 0.02372245118021965, -0.06144678592681885, -0.06929521262645721, -0.02232675440609455, 0.01672438159584999, -0.12979193031787872, -0.07443384826183319, -0.04666545242071152], [-0.007808350026607513, -0.03490686044096947, -0.025562869384884834, -0.15318405628204346, 0.037161387503147125, 0.18800286948680878, -0.19650152325630188, 0.11337357014417648, 0.1430656909942627, -0.16867977380752563, 0.10446622967720032, 0.1538381576538086, -0.07830255478620529, 0.05704295635223389, 0.21135327219963074, -0.03364169970154762, -0.04976712912321091, -0.16506680846214294, 0.01992163434624672, 0.1717015504837036, 0.04196701943874359, 0.11314927041530609, 0.14786621928215027, -0.16085615754127502, 0.11922331154346466, 0.08298853784799576, -0.1658726930618286, -0.0208850409835577, 0.016841484233736992, -0.12012666463851929, 0.08981142193078995, 0.15160402655601501, 0.060926929116249084, 0.1350199580192566, 0.014674008823931217, -0.12264356762170792, 0.10387763381004333, 0.08367903530597687, -0.1626490205526352, 0.18219923973083496, -0.09393959492444992, -0.10475164651870728, -0.004611817188560963, 0.07448530197143555, 0.16842928528785706, 0.13521574437618256, 0.02088036946952343, 0.011978000402450562, 0.10923297703266144, -0.16999775171279907, -0.0378691740334034, 0.10724645107984543, -0.0012634167214855552, 0.07207156717777252, 0.045365456491708755, -0.05107929930090904, 0.12905563414096832, 0.055993515998125076, -0.04199595749378204, 0.08064766973257065, -0.028751499950885773, -0.22968974709510803, 0.06459317356348038, -0.058959439396858215, -0.08464318513870239, -0.04241616278886795, -0.047322195023298264, -0.1304350346326828, 0.03653000295162201, 0.10116187483072281, 0.009892895817756653, -0.009987911209464073, 0.13369566202163696, 0.00924008246511221, 0.0854838639497757, 0.12916728854179382, 0.0479518324136734, 0.11714142560958862, -0.0041718678548932076, 0.05502859130501747, 0.08646800369024277, 0.038009706884622574, -0.16669632494449615, -0.04472819343209267, 0.02801593765616417, -0.0014252476394176483, 0.04611729830503464, -0.043709661811590195, 0.050875723361968994, 0.10071594268083572, -0.023964466527104378, 0.03999452292919159, 0.07477541267871857, -0.018165061250329018, -0.027528880164027214, -0.06480248272418976, -0.034953076392412186, -0.06807894259691238, -0.0333375446498394, -0.10551459342241287, 0.012547735124826431, -0.0314176119863987, -0.0043863337486982346, 0.025253497064113617, 0.044893018901348114, -0.1336522102355957, 0.018481692299246788, -0.07013256102800369, -0.13799647986888885, 0.0338858924806118, -0.00016173326002899557, -0.008077692240476608, 0.12195947766304016, 0.025905903428792953, -0.022472742944955826, -0.02768925577402115, -0.04592146351933479, -0.0842302218079567, 0.07537612318992615, 0.03469409793615341, -0.049254219979047775, -0.05841347202658653, -0.02964465320110321, -0.0204769354313612, -0.03355514630675316, -0.051685407757759094], [-0.01723574288189411, 0.0037472378462553024, 0.004998275078833103, 0.06632588803768158, -0.03207605704665184, -0.044040147215127945, 0.05159673094749451, 0.07747471332550049, -0.098311647772789, 0.031953051686286926, 0.15093834698200226, -0.020340537652373314, 0.1383625864982605, 0.08629710972309113, -0.19242584705352783, -0.10140714794397354, -0.14040470123291016, -0.11737585812807083, -0.05241670086979866, 0.056311022490262985, 0.0332794226706028, -0.16020838916301727, -0.03741580247879028, -0.02850641869008541, -0.2747935652732849, 0.11110257357358932, -0.017791451886296272, 0.04981300234794617, -0.17151391506195068, -0.053246308118104935, -0.11166474968194962, 0.022483089938759804, 0.05950041115283966, -0.13964679837226868, 0.09366833418607712, -0.06780241429805756, -0.291553258895874, 0.10943705588579178, -0.12619495391845703, 0.043544601649045944, 0.010480430908501148, 0.1521686166524887, -0.007985435426235199, 0.03870939463376999, 0.21264289319515228, -0.15376324951648712, -0.03741268068552017, 0.08556158095598221, -0.21314337849617004, -0.02538345195353031, -0.07675155252218246, 0.15638336539268494, -0.03632039949297905, 0.1319851279258728, -0.012644771486520767, 0.08198880404233932, 0.1798466145992279, -0.2060266137123108, 0.036707717925310135, 0.034350693225860596, -0.3378661572933197, -0.03501079976558685, -0.10850341618061066, 0.04569590836763382, -9.89784712146502e-06, -0.06594681739807129, 0.08954659849405289, -0.030460255220532417, 0.06371990591287613, -0.028424132615327835, 0.04609756916761398, -0.0802837461233139, -0.07455337047576904, 0.008409496396780014, -0.04053720459342003, -0.14138361811637878, -0.07481613010168076, 0.0369071438908577, -0.11892492324113846, -0.014176121912896633, -0.004776690620929003, -0.03382759168744087, 0.01955311745405197, 0.1309661865234375, 0.042248502373695374, -0.10701398551464081, -0.05345175787806511, -0.028304895386099815, 0.008202590048313141, -0.03392811864614487, -0.07656881958246231, 0.051754266023635864, 0.020751208066940308, 0.06600143015384674, 0.047091491520404816, 0.03859184309840202, -0.05759408697485924, 0.016165530309081078, -0.047894030809402466, 0.04027298837900162, 0.07299015671014786, -0.08616819232702255, -0.019354699179530144, -0.01880587451159954, 0.03301514685153961, -0.11853410303592682, -0.017028192058205605, 0.023164816200733185, -0.027719968929886818, -0.08888725936412811, -0.07169203460216522, -0.011942042969167233, 0.06767258793115616, -0.037596870213747025, 0.08180970698595047, 0.02195936255156994, 0.0035340271424502134, -0.0968891829252243, 0.12683136761188507, -0.026845773681998253, 0.0702325701713562, 0.009996126405894756, -0.016522053629159927, 0.09222520142793655, -0.017620256170630455, -0.07421690225601196], [0.08030659705400467, 0.006640966981649399, -0.025433337315917015, 0.14036494493484497, -0.04431259259581566, 0.04276995733380318, 0.09234702587127686, 0.203278049826622, -0.02670309878885746, 0.14245447516441345, 0.13074490427970886, -0.11759702861309052, 0.183487668633461, 0.17514584958553314, -0.04529567435383797, -0.12944765388965607, -0.14874158799648285, 0.1078425869345665, -0.24341964721679688, -0.18896180391311646, 0.01466478779911995, -0.05934746563434601, 0.022973379120230675, 0.07349630445241928, -0.17857220768928528, 0.07742328941822052, 0.23655836284160614, -0.14281976222991943, -0.1780681610107422, 0.09372065961360931, -0.10601546615362167, -0.32224977016448975, 0.04916811361908913, 0.04609844088554382, -0.13862870633602142, 0.07974662631750107, 0.07494327425956726, -0.0036519833374768496, 0.12249628454446793, -0.11688899248838425, -0.1529967486858368, 0.029604917392134666, 0.03870397061109543, -0.2461843341588974, -0.1920720487833023, 0.13014480471611023, 0.07801366597414017, -0.14652198553085327, 0.008439302444458008, 0.13965733349323273, -0.06364475935697556, 0.03208978846669197, -0.1241774633526802, -0.12799713015556335, 0.05445590615272522, 0.034848619252443314, -0.20113620162010193, 0.1808137595653534, 0.12463940680027008, -0.0830453559756279, 0.20928852260112762, 0.34668657183647156, -0.016183234751224518, 0.08046454191207886, -0.0420062318444252, -0.010874091647565365, -0.07855004817247391, 0.09574965387582779, 0.038829926401376724, 0.020035818219184875, 0.10143405944108963, 0.06429705768823624, -0.12068922817707062, 0.019050955772399902, -0.018087729811668396, 0.021758632734417915, -0.09166830778121948, -0.08165448904037476, 0.10559246689081192, -0.05126587301492691, 0.027773234993219376, -0.017180053517222404, 0.09267634898424149, -0.029950624331831932, 0.06424397230148315, -0.1026778370141983, -0.021341603249311447, 0.10255447775125504, -0.1319514364004135, -0.03563592955470085, -0.029640821740031242, -0.024039631709456444, 0.05781381577253342, 0.022650422528386116, 0.0776684582233429, -0.05031740292906761, -0.007672314997762442, 0.04666727036237717, 0.007226812187582254, 0.011073666624724865, -0.01837323233485222, -0.09303749352693558, 0.01894175447523594, -0.022861357778310776, 0.07828908413648605, 0.06032648682594299, 0.017259780317544937, -0.07712855935096741, -0.0462149940431118, 0.007674637250602245, -0.03531843423843384, -0.06726674735546112, -0.04209820553660393, 0.07663805037736893, -0.013956471346318722, -0.0171173345297575, 0.08890121430158615, -0.07110946625471115, 0.053307004272937775, -0.06519318372011185, 0.048048537224531174, -0.031586285680532455, -0.07157282531261444, -0.03592270612716675, -0.03873632848262787, -0.012599978595972061], [0.050485339015722275, -0.012594861909747124, 0.05551702529191971, 0.14929825067520142, -0.14792723953723907, 0.08866597712039948, 0.1294768899679184, -0.15271565318107605, -0.02011050656437874, 0.17635507881641388, -0.09752710163593292, -0.050964709371328354, 0.22429560124874115, -0.034079477190971375, -0.045974716544151306, -0.02208702266216278, -0.10762034356594086, -0.042433325201272964, 0.0772116556763649, -0.0019769698847085238, 0.0949125811457634, -0.016097696498036385, -0.03072768822312355, 0.1100485697388649, 0.07323534041643143, -0.09211652725934982, 0.09545484185218811, -0.13286390900611877, -0.13593624532222748, 0.04372023046016693, -0.011701174080371857, -0.08686390519142151, 0.056625980883836746, -0.0012702789390459657, -0.06754375994205475, 0.08947242796421051, -0.05576461926102638, -0.012823433615267277, 0.07818269729614258, -0.09442892670631409, -0.003213524119928479, -0.021678507328033447, 0.007073144894093275, -0.11082926392555237, -0.04319589212536812, -0.11753349006175995, -0.14106673002243042, 0.010064130648970604, -0.05329996719956398, -0.013747777789831161, 0.021399544551968575, -0.22244268655776978, -0.09497958421707153, 0.07315921783447266, 0.02555336058139801, -0.10955619066953659, 0.004238601308315992, -0.11336586624383926, -0.18021132051944733, 0.11007397621870041, -0.06410133093595505, -0.04035600647330284, -0.04600903391838074, 0.06815734505653381, 0.039131734520196915, -0.08405949920415878, -0.023783570155501366, 0.11475789546966553, -0.07583684474229813, 0.08309311419725418, 0.03658216446638107, -0.1714058220386505, 0.006528614088892937, 0.01353115402162075, -0.0896768793463707, 0.09472225606441498, -0.19521641731262207, -0.13737089931964874, -0.039218969643116, -0.052298322319984436, 0.018147336319088936, 0.1639772653579712, -0.048266150057315826, -0.02465393766760826, 0.16032539308071136, -0.20230358839035034, 0.03336970508098602, 0.02220364660024643, -0.14303740859031677, -0.07449289411306381, 0.014135502278804779, -0.18675579130649567, 0.014011269435286522, 0.02186245657503605, 0.06870459765195847, 0.08506708592176437, 0.115071602165699, 0.03041112795472145, -0.006495106033980846, 0.008124655112624168, 0.008645410649478436, -0.12287966907024384, -0.0772305503487587, -0.06291557103395462, 0.17311938107013702, -0.041652508080005646, 0.1441301554441452, 0.134739950299263, 0.020360015332698822, -0.10005740821361542, 0.1193634569644928, -0.1129588931798935, -0.03014913573861122, -0.03836999088525772, -0.019297635182738304, -0.12881620228290558, 0.087226003408432, -0.02390873432159424, 0.0532500185072422, 0.06319165974855423, 0.07428629696369171, 0.03581337258219719, 0.11395679414272308, -0.12251413613557816, -0.010247619822621346, 0.0470900721848011], [-0.07702319324016571, 0.04609304293990135, -0.046932417899370193, 0.03893653303384781, -0.1450939029455185, 0.08828295767307281, 0.0047841458581388, -0.20709730684757233, 0.1245209127664566, 0.02189183235168457, -0.2608209550380707, 0.1746133416891098, 0.06048375740647316, -0.1861834079027176, 0.3490521013736725, -0.15817144513130188, -0.2337198406457901, -0.09067246317863464, -0.2598399519920349, -0.2258330136537552, -0.04368139058351517, -0.18147751688957214, -0.09971803426742554, -0.00940368976444006, -0.1517614871263504, 0.04585227370262146, 0.05052449554204941, -0.17455799877643585, -0.13950860500335693, -0.07491359859704971, -0.09309429675340652, -0.393451064825058, -0.037608396261930466, -0.008641673251986504, -0.2977820634841919, 0.0067525883205235004, 0.049796827137470245, -0.13865692913532257, 0.08329420536756516, -0.10122674703598022, -0.2214532345533371, -0.06892940402030945, -0.010708646848797798, -0.11638899147510529, -0.16923514008522034, 0.08286203444004059, -0.11897791177034378, -0.09508220851421356, 0.09499647468328476, 0.03328682482242584, -0.10621859133243561, -0.10218580067157745, -0.10951322317123413, -0.0624280720949173, -0.12368955463171005, -0.03613441064953804, -0.11580520123243332, -0.0325905904173851, 0.2662671208381653, -0.005736485589295626, 0.059528648853302, 0.3231474459171295, 0.07115484029054642, -0.0866447165608406, 0.04156377911567688, -0.004855095874518156, 0.100123330950737, 0.00495835579931736, -0.010532139800488949, 0.09548782557249069, 0.059862274676561356, -0.06318958103656769, 0.013444592244923115, 0.04879852384328842, 0.04043131694197655, 0.06886697560548782, 0.016267243772745132, 0.08187488466501236, -0.08154354244470596, 0.14793384075164795, -0.005634593311697245, -0.1239703893661499, 0.0481572151184082, -0.0026946859434247017, 0.040685005486011505, -0.050308629870414734, -0.13641326129436493, -0.05470196157693863, -0.08866375684738159, -0.07382318377494812, -0.04212633892893791, 0.10855460911989212, 0.040790293365716934, 0.06647010147571564, 0.11123757809400558, -0.020860837772488594, 0.02890080399811268, -0.05427888408303261, -0.07815825194120407, 0.09886985272169113, 0.1262931227684021, -0.01860395446419716, -0.09938281029462814, 0.1445399820804596, -0.04193969815969467, -0.027839157730340958, -0.08472269028425217, 0.0010346077615395188, 0.04672158509492874, -0.0834820345044136, 0.09296376258134842, 0.016490183770656586, 0.07298588007688522, 0.08651787787675858, -0.09627795219421387, -0.05406557396054268, 0.12182744592428207, -0.047182846814394, 0.020723648369312286, 0.11144162714481354, -0.12955424189567566, -0.09202390909194946, -0.05905425176024437, 0.024218833073973656, 0.03382350876927376, 0.0002511401253286749], [0.07727539539337158, 0.018848411738872528, -0.0619790144264698, 0.23696374893188477, -0.11498750001192093, 0.14087791740894318, 0.03458127751946449, -0.24734100699424744, 0.03413354605436325, -0.0037695765495300293, -0.14395776391029358, 0.10143370181322098, 0.1021389439702034, -0.13246706128120422, 0.19648540019989014, 0.07290080189704895, -0.24179817736148834, -0.14964450895786285, -0.03365040197968483, -0.21343477070331573, -0.171485036611557, -0.16562841832637787, -0.15912999212741852, 0.01964034140110016, -0.08904307335615158, -0.1489620953798294, -0.026666363701224327, -0.07901415973901749, -0.0858471468091011, -0.15627427399158478, -0.06159526854753494, -0.3206172585487366, -0.05946912616491318, -0.0031311670318245888, -0.21704533696174622, -0.0012160659534856677, -0.07032345235347748, -0.1694929450750351, -0.029310308396816254, -0.15340352058410645, -0.19289293885231018, -0.01710602268576622, -0.08957130461931229, -0.1964765340089798, -0.03287210315465927, -0.02892681024968624, -0.11940756440162659, -0.043364718556404114, -0.12557822465896606, -0.1193314716219902, -0.051705315709114075, -0.09431689977645874, -0.010104886256158352, 0.03275955840945244, -0.03789116069674492, -0.13800804316997528, -0.0281468965113163, 0.004256236832588911, -0.08316027373075485, -0.02199939265847206, -0.06539594382047653, 0.01653006114065647, -0.030882518738508224, 0.0409281849861145, 0.05746523663401604, -0.05244284123182297, 0.22321738302707672, 0.0416719876229763, 0.09201392531394958, 0.14326335489749908, 0.11725975573062897, 0.08314254879951477, -0.046201448887586594, 0.048755038529634476, 0.09158346801996231, 0.07118388265371323, 0.08876698464155197, 0.020802857354283333, -0.07470813393592834, 0.012137348763644695, -0.12391930818557739, -0.0952381119132042, 0.01388862356543541, 0.004741550888866186, -0.1235460638999939, -0.06094995141029358, -0.09756255894899368, -0.09453067928552628, 0.08103061467409134, 0.037809357047080994, -0.00657397648319602, 0.12075348943471909, -0.05287361145019531, 0.02990517020225525, -0.008703768253326416, -0.11563185602426529, 0.06055029481649399, -0.02901814505457878, 0.06344569474458694, 0.19665999710559845, -0.08823632448911667, 0.0400502048432827, -0.022386236116290092, -0.008184793405234814, 0.008622720837593079, 0.013945377431809902, -0.16448688507080078, 0.049836575984954834, -0.05524322763085365, -0.10837952792644501, 0.021289348602294922, 0.05152296647429466, 0.004889190196990967, -0.09421293437480927, 0.10901277512311935, 0.05583830177783966, -0.10846783220767975, 0.061135049909353256, -0.0018484300235286355, 0.0335112065076828, -0.0004103414830751717, 0.00935074407607317, -0.038851797580718994, 0.07183890044689178, 0.14487288892269135, 0.024458667263388634], [0.060263074934482574, -0.011798775754868984, 0.021501809358596802, -0.04625175520777702, 0.04434173181653023, -0.06395990401506424, 0.03496310114860535, 0.043085820972919464, -0.01886938139796257, -0.04727315902709961, -0.15888801217079163, -0.06962545961141586, -0.15913689136505127, -0.06925468146800995, -0.07796952873468399, 0.22759537398815155, 0.31766477227211, -0.15101557970046997, 0.10931584984064102, 0.29344016313552856, -0.18794293701648712, 0.16156348586082458, 0.13845443725585938, -0.1286972016096115, 0.08689295500516891, 0.06319102644920349, -0.09056522697210312, 0.05003038048744202, 0.2520885169506073, -0.07772017270326614, 0.08241491764783859, 0.30531036853790283, -0.11248490959405899, 0.06431524455547333, 0.15228043496608734, -0.008400831371545792, -0.03204397112131119, -0.012850257568061352, -0.009538909420371056, -0.009204710833728313, 0.16668790578842163, 0.03254489228129387, -0.1343359351158142, 0.23041602969169617, -0.05739989131689072, -0.0523669458925724, -0.026474859565496445, 0.03082040697336197, -0.09996096789836884, 0.047477852553129196, 0.06464948505163193, -0.09262625128030777, 0.23679576814174652, 0.0382760725915432, -0.12698861956596375, 0.044825680553913116, 0.16027577221393585, -0.1253802627325058, -0.11585554480552673, 0.19048969447612762, -0.1096661314368248, -0.17499318718910217, 0.19300805032253265, 0.03554251044988632, -0.07707297801971436, 0.0027422241400927305, -0.03979026526212692, 0.03477984294295311, 0.06483999639749527, 0.019538206979632378, 0.0035604885779321194, 0.04662036523222923, -0.0001447243121219799, 0.07781531661748886, 0.003454220714047551, 0.042612023651599884, -0.051783088594675064, -0.053771402686834335, 0.06696178019046783, -0.14837564527988434, -0.08431126177310944, -0.06867855042219162, -0.04454152658581734, 0.036809470504522324, -0.042862772941589355, -0.044369131326675415, -0.03952464833855629, 0.010963436216115952, 0.05001453310251236, -0.061451300978660583, 0.038255687803030014, -0.030854085460305214, 0.02534470334649086, 0.031166115775704384, -0.09274964779615402, -0.01213766634464264, 0.057206619530916214, -0.002747681923210621, -0.018306797370314598, -0.0021669475827366114, -0.10524177551269531, 0.03782466799020767, 0.022449754178524017, -0.004607299342751503, -0.004025106783956289, 0.035518620163202286, -0.05417381227016449, 0.011418534442782402, -0.0006258699577301741, -0.06351117044687271, 0.03998200595378876, 0.029502801597118378, -0.09414774179458618, 0.06147640943527222, 0.036465566605329514, 0.0034032915718853474, -0.05437473580241203, 0.03270084038376808, -0.015516849234700203, 0.00019851454999297857, -0.08594822138547897, 0.09108135849237442, 0.011472273617982864, 0.035805635154247284, -0.007899674586951733, -0.08521430939435959], [-0.07279307395219803, -0.07351358234882355, -0.061837587505578995, 0.18847326934337616, 0.2352636605501175, 0.20778152346611023, 0.14183641970157623, 0.1928188055753708, 0.14017701148986816, 0.11939501762390137, 0.1776655614376068, 0.21243903040885925, 0.031474094837903976, 0.10589145123958588, 0.18101631104946136, 0.16001982986927032, 0.16868077218532562, -0.07066807150840759, 0.22280101478099823, 0.13956180214881897, -0.07153229415416718, 0.27275925874710083, 0.10934676975011826, -0.138435959815979, 0.21878108382225037, -0.09803024679422379, -0.16653256118297577, 0.08403752744197845, 0.03227590024471283, -0.0446404404938221, 0.06600543111562729, 0.06512103974819183, -0.08195450901985168, 0.13054563105106354, -0.04884857311844826, -0.0942118763923645, 0.1639150232076645, -0.08312210440635681, -0.17212343215942383, -0.0225541889667511, 0.02311214618384838, -0.05803987383842468, -0.03237307816743851, -0.057725366204977036, 0.08852479606866837, 0.05653848871588707, -0.1798768788576126, 0.09296447038650513, 0.06697625666856766, -0.1686546802520752, 0.017348870635032654, -0.11507598310709, -0.15524645149707794, 0.06734319031238556, -0.14604246616363525, -0.2706146538257599, 0.004525963217020035, -0.09395068883895874, -0.38703539967536926, 0.13907648622989655, -0.03594966232776642, -0.47773459553718567, 0.12573395669460297, -0.026873866096138954, -0.03747602179646492, -0.04615674167871475, -0.014411878772079945, 0.06174071133136749, 0.12973527610301971, -0.15843015909194946, -0.07675300538539886, 0.059959229081869125, -0.09954354166984558, 0.05387677624821663, 0.04886510223150253, -0.0315849706530571, 0.02767856977880001, 0.07640703022480011, -0.000338156009092927, -0.06548485904932022, -0.11443675309419632, -0.009428394958376884, 0.030788201838731766, 0.005750647280365229, -0.12977372109889984, 0.05816185846924782, -0.06643688678741455, -0.09818786382675171, 0.11115992069244385, 0.05084461718797684, -0.11988567560911179, 0.00037156575126573443, 0.028328677639365196, -0.09629923105239868, 0.040963687002658844, 0.08940023183822632, -0.08718234300613403, 0.006107260473072529, -0.03574893996119499, -0.19832664728164673, 0.03600434958934784, 0.10355667769908905, -0.0797959715127945, 0.054043158888816833, -0.08814740180969238, 0.08066688477993011, -0.04528448358178139, -0.061192769557237625, -0.03310295566916466, -0.03170963004231453, 0.007166158873587847, 0.003906642086803913, 0.042792174965143204, -0.08021242916584015, -0.06247631087899208, 0.0774615928530693, 0.02029709331691265, 0.11531158536672592, 0.06495535373687744, 0.019721584394574165, 0.046033825725317, 0.03496689721941948, 0.01976926624774933, -0.09102006256580353, 0.043134067207574844, -0.04028093442320824], [-0.015964962542057037, -0.0564536489546299, -0.008286559022963047, -0.09459854662418365, -0.2687314450740814, 0.21022909879684448, -0.11021149158477783, -0.22859518229961395, 0.2229171097278595, -0.13549380004405975, -0.19414180517196655, 0.17643392086029053, -0.1666714996099472, -0.012874707579612732, 0.2527359127998352, 0.2924492657184601, -0.02197486348450184, -0.052680447697639465, 0.032695457339286804, -0.18343763053417206, 0.010304656811058521, -0.1557151973247528, -0.02569112740457058, 0.2023133635520935, -0.08748454600572586, 0.006489423103630543, 0.204566091299057, 0.2920302152633667, -0.0633397325873375, 0.033487528562545776, -0.02006160281598568, -0.17563804984092712, -0.038128163665533066, -0.13624702394008636, -0.08290653675794601, -0.0010400438914075494, -0.11240135878324509, 0.03447270765900612, 0.13511505722999573, 0.2349771410226822, 0.09863554686307907, -0.15029440820217133, 0.009041598998010159, -0.09877442568540573, -0.07272032648324966, -0.1330503523349762, -0.13069681823253632, -0.08986785262823105, -0.01605425402522087, -0.08923054486513138, 0.02964065410196781, 0.09898709505796432, 0.1046280786395073, -0.05110003426671028, -0.14714287221431732, 0.11039432883262634, -0.12516695261001587, -0.0287313349545002, 0.06479108333587646, -0.09241487085819244, -0.011720933951437473, 0.17909112572669983, -0.10145745426416397, 0.07352261990308762, -0.00865047425031662, -0.012442262843251228, 0.11256429553031921, -0.017581498250365257, 0.06546945869922638, -0.016614438965916634, 0.041534196585416794, 0.0840798169374466, -0.06466828286647797, 0.1570713073015213, -0.08367116004228592, -0.13316315412521362, 0.22380465269088745, 0.08218932896852493, -0.030484752729535103, -0.02649938315153122, -0.003449210664257407, -0.009362074546515942, -0.15313373506069183, -0.0922987088561058, -0.04390541464090347, -0.0612003393471241, -0.01831674762070179, -0.08746397495269775, -0.015301378443837166, -0.00022380522568710148, 0.07857917994260788, -0.005261033307760954, -0.0029591801576316357, -0.03570353984832764, -0.006696254480630159, -0.012257681228220463, -0.08270888030529022, -0.00160385447088629, 0.00913225021213293, 0.003071962855756283, -0.03449071943759918, 0.07952698320150375, 0.019826270639896393, 0.016227660700678825, -0.09854237735271454, -0.05009422078728676, 0.015667175874114037, 0.059312883764505386, -0.12305883318185806, 0.059261515736579895, 0.03055938519537449, -0.029236959293484688, -0.055024635046720505, 0.08229117095470428, -0.00024868943728506565, 0.09449800848960876, -0.10350070148706436, 0.07682248950004578, 0.02871939167380333, 0.023645680397748947, -0.049790702760219574, 0.013033745810389519, 0.08877827227115631, 0.08017664402723312, -0.03241664916276932, -0.024401575326919556], [0.07888193428516388, 0.05726844444870949, -0.013656066730618477, 0.1836807280778885, -0.16125446557998657, -0.07864377647638321, 0.2067190259695053, -0.16475719213485718, -0.0074051180854439735, 0.15474118292331696, -0.15155842900276184, -0.11861943453550339, 0.011138866655528545, -0.00920441560447216, -0.07440698146820068, -0.00624481588602066, -0.09702487289905548, -0.12840992212295532, -0.05279814451932907, -0.11457883566617966, -0.05413459613919258, -0.006780273746699095, -0.12259745597839355, 0.12233603000640869, 0.025216450914740562, 0.0265588890761137, 0.040029678493738174, -0.14769645035266876, -0.10796064883470535, -0.09518837928771973, -0.08594342321157455, 0.0067784725688397884, 0.03658067807555199, -0.15348675847053528, -0.027805468067526817, 0.0847431942820549, -0.09342195838689804, -0.043772436678409576, 0.05667373910546303, -0.22341816127300262, -0.10766009986400604, -0.03678254410624504, -0.20277635753154755, -0.05376185104250908, 0.013248402625322342, -0.07154031842947006, -0.10078833997249603, 0.040122658014297485, -0.0475282147526741, -0.15009073913097382, 0.13999363780021667, -0.2217608094215393, -0.047009456902742386, 0.046465132385492325, -0.17577619850635529, -0.08830004930496216, -0.002941466635093093, -0.17479859292507172, -0.1775214523077011, 0.02154548279941082, -0.06731170415878296, -0.1895998865365982, 0.09164705872535706, 0.014516796916723251, -0.006892172619700432, 0.003673216560855508, 0.06345809996128082, 0.008114725351333618, -0.0935065746307373, 0.02908775582909584, 0.043530095368623734, 0.046522509306669235, -0.02113865688443184, 0.10310269892215729, -0.04459869861602783, 0.05554290860891342, -0.11231350898742676, 0.013468305580317974, 0.01839611679315567, -0.17745421826839447, -0.03541700914502144, 0.13845552504062653, -0.06830045580863953, -0.042151954025030136, 0.03731285035610199, -0.1357000172138214, -0.07232954353094101, 0.012425895780324936, 0.038058940321207047, -0.09424986690282822, 0.05834211781620979, -0.15008267760276794, -0.031122252345085144, -0.05865280702710152, 0.020775627344846725, -0.02154063619673252, -0.07367809861898422, 0.0437028706073761, 0.05550114065408707, -0.12872809171676636, 0.06748426705598831, -0.09005572646856308, -0.06759323924779892, -0.19894424080848694, 0.10132018476724625, 0.060471635311841965, 0.17518655955791473, 0.06575074046850204, -0.04019373655319214, -0.026179634034633636, -0.08092617988586426, 0.0019153165630996227, -0.05165429040789604, -0.013641152530908585, 0.11632905900478363, -0.05521874874830246, 0.024368666112422943, 0.1226031482219696, 0.024930885061621666, 0.04887428507208824, 0.005222855135798454, -0.04613925889134407, -0.02238621562719345, 0.023092491552233696, 0.013713344931602478, -0.09544548392295837], [-0.014314092695713043, 0.04552473500370979, -0.005166793242096901, -0.15278299152851105, 0.03182291239500046, 0.267505019903183, -0.19920702278614044, 0.2024925947189331, 0.25332698225975037, -0.21265824139118195, 0.1298176795244217, 0.2467573583126068, -0.16230742633342743, 0.15978221595287323, 0.0820707380771637, 0.0375288724899292, 0.13761775195598602, -0.004126736428588629, 0.07727780938148499, 0.1795957237482071, 0.1412750631570816, 0.037079643458127975, 0.17590685188770294, 0.07855310291051865, -0.012775708921253681, -0.016639066860079765, 0.11159339547157288, 0.03634968772530556, 0.0410640649497509, -0.08561545610427856, 0.08555355668067932, 0.24492019414901733, 0.03518904000520706, 0.1316162645816803, 0.16397185623645782, -0.032232023775577545, 0.08450974524021149, 0.0964536964893341, -0.06517966836690903, 0.09388942271471024, 0.009902178309857845, -0.026089554652571678, 0.22228336334228516, 0.06783558428287506, 0.19103996455669403, 0.19048382341861725, 0.11600451916456223, 0.009783643297851086, 0.028297990560531616, -0.017897432669997215, -0.03329949080944061, 0.08149965107440948, 0.0830627828836441, 0.10210788249969482, 0.15327656269073486, 0.1441757082939148, 0.16052980720996857, 0.04256037250161171, 0.008857530541718006, 0.14428821206092834, -0.004693092778325081, -0.0944754034280777, -0.03767482936382294, 0.0039769914001226425, -0.06444112211465836, -0.003567005740478635, 0.058700770139694214, -0.10160379856824875, 0.010544804856181145, 0.02063671499490738, -0.05542431026697159, -0.0544729083776474, 0.11689889430999756, 0.03975145146250725, -0.052402082830667496, -0.0737437978386879, 0.12078700959682465, 0.08299290388822556, 0.07181423902511597, -0.0047583202831447124, 0.10503820329904556, 0.11167682707309723, -0.1384929120540619, -0.014811443164944649, 0.022692538797855377, 0.006438637152314186, 0.11658522486686707, 0.013501768931746483, 0.03619249910116196, 0.14543822407722473, -0.04793766885995865, 0.03288199007511139, 0.05227318033576012, 0.02712373062968254, -0.048997148871421814, -0.013955245725810528, 0.009849971160292625, -0.023179804906249046, -0.03844718262553215, -0.09991396218538284, -0.12147194147109985, -0.013151359744369984, -0.10054462403059006, -0.00040799754788167775, -0.013976624235510826, -0.07795153558254242, -0.021311229094862938, 0.01740436814725399, -0.10906435549259186, 0.042440760880708694, -0.1301341950893402, 0.000647780834697187, 0.03695983439683914, -0.10498254001140594, -0.1604224294424057, 0.16418814659118652, -0.12594318389892578, 0.008398257195949554, -0.04834585636854172, -0.04649363085627556, -0.08219120651483536, 0.006571793928742409, 0.08062854409217834, -0.004683943931013346, 0.07607340067625046, 0.10427118092775345], [-0.02681208960711956, 0.04801170900464058, 0.04130299389362335, 0.031212668865919113, -0.0758860632777214, 0.159615159034729, 0.07608125358819962, 0.11065120995044708, 0.14679943025112152, 0.083121657371521, 0.0071161785162985325, 0.23114202916622162, 0.032078031450510025, 0.22652330994606018, 0.07598846405744553, -0.07136374711990356, 0.12345416843891144, 0.07904108613729477, -0.06804666668176651, 0.09883397072553635, 0.24721187353134155, 0.0004914493183605373, 0.05853571742773056, 0.22148387134075165, -0.0430779829621315, -0.06488872319459915, 0.23778963088989258, -0.06273748725652695, 0.10102339833974838, -0.07255194336175919, -0.045823898166418076, 0.007702648174017668, 0.04065325856208801, 0.0870865136384964, -0.0047738198190927505, 0.18821220099925995, -0.013317389413714409, -0.12254660576581955, 0.17184241116046906, -0.19893698394298553, 0.08644063025712967, -0.053212665021419525, -0.08164374530315399, -0.05081801861524582, 0.1839711219072342, -0.03976157307624817, -0.0921756699681282, 0.04202690348029137, -0.06367680430412292, -0.18845577538013458, -0.01783914677798748, -0.13963636755943298, 0.08091378957033157, 0.06662137806415558, 0.07339664548635483, 0.016689235344529152, 0.1656499058008194, 0.014410492032766342, -0.0076090749353170395, 0.15258948504924774, 0.0051926798187196255, -0.18920500576496124, -0.02300059236586094, -0.020298775285482407, -0.07453599572181702, 0.039576511830091476, 0.08647841960191727, -0.22678014636039734, 0.009271993301808834, 0.23384056985378265, 0.0714598298072815, -0.018550420179963112, 0.1576453596353531, -0.0021858594845980406, -0.04428615793585777, 0.0012528453953564167, -0.15066242218017578, 0.042635228484869, -0.019840694963932037, 0.08722998201847076, -0.09542536735534668, -0.0426129586994648, 0.17631085216999054, 0.010126089677214622, 0.03824066370725632, -0.056653499603271484, -0.12442449480295181, -0.04789895936846733, -0.1326507180929184, 0.03153317794203758, -0.07333891093730927, 0.11348377913236618, -0.009718507528305054, -0.061211470514535904, 0.07656533271074295, -0.027893561869859695, 0.009282049722969532, -0.1063348799943924, -0.07668935507535934, 0.08928947150707245, -0.05780164897441864, -0.019359612837433815, -0.1352829486131668, 0.0787314921617508, 0.07250305265188217, -0.14936667680740356, 0.021962275728583336, -0.004775088746100664, -0.001742732711136341, -0.05395752936601639, -0.03451579809188843, -0.006273619830608368, -0.008810371160507202, -0.05759301409125328, -0.2080804705619812, 0.20220868289470673, -0.01254312228411436, -0.10474710911512375, -0.05902084708213806, 0.12550967931747437, -0.10948766767978668, -0.02312326245009899, -0.035143330693244934, -0.04729075729846954, -0.048738863319158554, 0.06213735044002533], [0.01812439225614071, -0.0883764922618866, -0.08458302170038223, 0.12369488179683685, -0.26394757628440857, 0.11030348390340805, 0.12314136326313019, -0.15269911289215088, 0.23008769750595093, 0.1299324631690979, -0.20349626243114471, 0.21842925250530243, 0.146958589553833, -0.3070346713066101, 0.12107260525226593, 0.08391615003347397, 0.0006605747621506453, -0.009050922468304634, 0.05228239297866821, -0.14684921503067017, 0.06121205911040306, -0.005135137587785721, -0.031709279865026474, 0.03943278267979622, 0.016670674085617065, 0.02282843552529812, 0.20918557047843933, 0.05886281654238701, -0.02549903094768524, -0.021765844896435738, -0.061749354004859924, -0.1828794777393341, 0.03531498461961746, -0.07105357199907303, -0.1267615258693695, 0.01158833596855402, -0.13393795490264893, 0.10729693621397018, 0.10420387238264084, 0.0654982402920723, 0.06842752546072006, 0.10356730967760086, -0.0003738160594366491, -0.1207820326089859, 0.015362517908215523, -0.15854915976524353, -0.11390355229377747, -0.007476916536688805, -0.14008966088294983, -0.0072277141734957695, 0.12519674003124237, -0.04775388538837433, -0.01377541571855545, 0.11713981628417969, -0.14180895686149597, -0.1982165426015854, -0.0451207309961319, -0.14058981835842133, -0.21792110800743103, 0.00425215158611536, -0.037078358232975006, 0.04559711739420891, 0.05204782262444496, 0.03448556736111641, -0.020118702203035355, 0.08139115571975708, -0.051120299845933914, 0.07698825746774673, -0.012867462821304798, 0.2330743968486786, -0.0052891806699335575, -0.04125041142106056, 0.08876796066761017, 0.05678192526102066, 0.1327631026506424, 0.13499294221401215, -0.11654242873191833, 0.06307139992713928, 0.05162365734577179, 0.1661028116941452, -0.010662692598998547, 0.05419499799609184, 0.017550401389598846, 0.07210249453783035, -0.0357230082154274, -0.0845637321472168, 0.0040691508911550045, -0.03617165982723236, -0.0583273246884346, -0.06785430014133453, 0.021071074530482292, 0.09702327102422714, -0.000649291614536196, 0.03956783935427666, 0.0568913109600544, 0.021197747439146042, -0.033743735402822495, 0.030538760125637054, -0.08345970511436462, 0.05401882901787758, 0.05050837993621826, -0.11441028118133545, -0.06494838744401932, -0.05842015892267227, 0.10402750223875046, -0.07918478548526764, 0.016464916989207268, -0.023748554289340973, -0.07410182803869247, 0.019980469718575478, -0.07083562016487122, -0.014409083873033524, 0.06369800865650177, -0.02380208857357502, -0.028584884479641914, 0.0021367226727306843, 0.11379645764827728, -0.03491560369729996, -0.00952661782503128, 0.019134242087602615, -0.05971279367804527, -0.018607068806886673, -0.051873642951250076, 0.073900006711483, 0.011442076414823532, -0.10191911458969116], [0.01763409934937954, 0.042689330875873566, -0.04731370881199837, 0.12584254145622253, -0.2064138799905777, 0.1658935844898224, 0.06755676120519638, -0.19569826126098633, 0.20029719173908234, 0.12268976122140884, -0.043866466730833054, 0.11526980996131897, 0.013889200985431671, -0.14495666325092316, 0.14298100769519806, 0.0830797627568245, -0.14122457802295685, -0.0033959134016186, -0.10311207175254822, -0.09083263576030731, -0.03767087683081627, -0.08575039356946945, -0.1064995750784874, 0.05541214346885681, -0.2300156056880951, -0.050404105335474014, 0.07169628888368607, 0.018473993986845016, -0.10708563774824142, 0.05209866166114807, -0.18233832716941833, -0.23062559962272644, -0.020712442696094513, -0.10879234224557877, -0.14535419642925262, 0.043062351644039154, -0.21882236003875732, -0.08239396661520004, 0.026228688657283783, 0.0009129932732321322, -0.0783245861530304, 0.04541095346212387, -0.051033224910497665, -0.16882188618183136, -0.015548301860690117, -0.18381886184215546, -0.07629764080047607, 0.07213540375232697, -0.10093729197978973, -0.12669968605041504, 0.05803229287266731, -0.1287616491317749, -0.08128384500741959, 0.06802675127983093, -0.018269918859004974, -0.12460735440254211, -0.07471773028373718, -0.048798125237226486, -0.18154440820217133, -0.07701359689235687, -0.08169811964035034, 0.04379912465810776, -0.08256921172142029, 0.05564418062567711, 0.03160415589809418, -0.001999386353418231, 0.019253740087151527, 0.09462882578372955, 0.03915747255086899, -0.08260064572095871, 0.10049428045749664, 0.11690188944339752, -0.16154086589813232, 0.01968963071703911, -0.0008610313525423408, -0.13546761870384216, 0.10956241190433502, 0.07416989654302597, -0.12010782212018967, 0.07254893332719803, -0.04599665477871895, -0.10586186498403549, -0.09704770892858505, 0.020109063014388084, -0.128818079829216, 0.03460920974612236, 0.03548486903309822, -0.0068088434636592865, 0.09340035170316696, -0.038814976811409, -0.03333326056599617, -0.02161579765379429, -0.07561478018760681, -0.18629372119903564, -0.16227957606315613, 0.06938331574201584, 0.016554592177271843, 0.04284948110580444, 0.051181819289922714, 0.1192077249288559, 0.040416110306978226, 0.10116015374660492, -0.009063320234417915, 0.051885467022657394, -0.10521697252988815, -0.15310485661029816, -0.06473661959171295, -0.08939056098461151, -0.16008107364177704, 0.06926582753658295, -0.0980774536728859, 0.046227309852838516, -0.06665945798158646, 0.018650459125638008, 0.04085030406713486, -0.06655288487672806, -0.03888341039419174, -0.0832277238368988, -0.0017787361284717917, -0.007033211179077625, 0.003127795411273837, -0.028033843263983727, -0.041142504662275314, 0.06937485188245773, -0.09638745337724686, -0.041006430983543396], [-0.056340958923101425, -0.003920418210327625, -0.04057345539331436, -0.23371301591396332, -0.23605355620384216, 0.14125144481658936, -0.10864590108394623, -0.3007619082927704, 0.10374002903699875, -0.1641179919242859, -0.34879401326179504, 0.11088228225708008, -0.11007171124219894, -0.27578821778297424, 0.17938698828220367, 0.042008910328149796, 0.03691723942756653, -0.07217475026845932, -0.04648766666650772, 0.08642524480819702, 0.09507281333208084, -0.10726286470890045, -0.053447164595127106, 0.10643725842237473, -0.15449485182762146, -0.00011852133320644498, -0.08245861530303955, 0.07602199167013168, 0.0062684714794158936, 0.08000709116458893, -0.06016531586647034, 0.10009302943944931, 0.1528497338294983, -0.04630138352513313, 0.09673924744129181, -0.019134242087602615, -0.09625682234764099, -0.080329529941082, -0.020272640511393547, 0.084332175552845, 0.17903001606464386, 0.11696244776248932, -0.0157790444791317, 0.1954277604818344, 0.12458910793066025, -0.08007178455591202, 0.041774097830057144, -0.035092197358608246, -0.17213502526283264, -0.05864356458187103, -0.08365694433450699, 0.054277271032333374, 0.22922679781913757, 0.1682877540588379, -0.00779004069045186, 0.27236777544021606, 0.01349159050732851, 0.005187435541301966, 0.07348404824733734, 0.10808549076318741, -0.1989258974790573, 0.10422195494174957, -0.05501675605773926, 0.04098019003868103, -0.03769732266664505, 0.03405303508043289, 0.012417251244187355, 0.1983780711889267, -0.04520859196782112, -0.014797029085457325, 0.08199164271354675, 0.07486935704946518, 0.08526640385389328, 0.059849813580513, 0.0010254139779135585, -0.04521464183926582, 0.004036610014736652, 0.048912953585386276, -0.01332626398652792, 0.12343532592058182, 0.08835852891206741, 0.04502512142062187, -0.1345796138048172, 0.014888775534927845, -0.001395657192915678, -0.1360481232404709, -0.06168258935213089, 0.036330971866846085, 0.11889518052339554, -0.007673935033380985, -0.02377111278474331, -0.004038029350340366, -0.0774686336517334, 0.04823487997055054, -0.014431360177695751, -0.020106185227632523, -0.057464972138404846, -0.032314084470272064, 0.007455137092620134, -0.008177668787539005, -0.03084898367524147, -0.015236609615385532, -0.023498140275478363, -0.015460648573935032, -0.02629866637289524, -0.021505163982510567, -0.04730786755681038, 0.004822802729904652, 0.05380098894238472, -0.0807962566614151, 0.0853189080953598, -0.05000792816281319, -0.02377319149672985, 0.12139154970645905, -0.05002591758966446, 0.06434837728738785, -0.07028383016586304, 0.09334763884544373, -0.058313533663749695, -0.032262299209833145, -0.015190002508461475, -0.00478762062266469, 0.034369297325611115, -0.1189117357134819, -0.02146369218826294, 0.06789420545101166], [0.04304469749331474, 0.03495952486991882, -0.0035214885137975216, 0.023761900141835213, 0.24257759749889374, 0.11856182664632797, -0.08247879892587662, 0.19308897852897644, 0.1677403599023819, -0.11830214411020279, 0.09440644830465317, 0.20836058259010315, -0.10214099287986755, -0.16281308233737946, 0.2497907429933548, -0.012972433120012283, 0.09352610260248184, -0.17704908549785614, -0.06097082048654556, 0.01564662531018257, -0.11718829721212387, 0.198817178606987, 0.05246519297361374, -0.05308491736650467, 0.19465740025043488, 0.14689603447914124, -0.13481289148330688, 0.04167095944285393, -0.035080429166555405, -0.15461453795433044, 0.07094767689704895, 0.02712375298142433, 0.07053361088037491, 0.05851370841264725, 0.15363198518753052, -0.026531297713518143, 0.18567048013210297, 0.03410328924655914, -0.12317909300327301, 0.0240752212703228, -0.04390391334891319, -0.014352895319461823, 0.09694722294807434, 0.027321049943566322, 0.1182655468583107, 0.1641627550125122, 0.02243833802640438, 0.08581403642892838, 0.07195644080638885, 0.08681725710630417, -0.060175810009241104, 0.07129687815904617, -0.14501525461673737, 0.22689826786518097, 0.17081964015960693, -0.08129340410232544, 0.17045210301876068, 0.203569233417511, 0.05737951025366783, 0.10361089557409286, 0.07820645719766617, -0.04103931784629822, -0.10977467149496078, 0.0369357094168663, 0.032860737293958664, 0.03302910551428795, -0.016084875911474228, -0.018423467874526978, 0.049203723669052124, 0.054124634712934494, -0.0541779026389122, 0.07700082659721375, -0.06977818161249161, 0.024455180391669273, -0.05584410950541496, -0.027471207082271576, 0.06884503364562988, -0.03058897703886032, -0.006185689941048622, 0.0031035039573907852, 0.06248417869210243, 0.05282102897763252, -0.03195163607597351, -0.04484104737639427, 0.031156977638602257, -0.03961942717432976, 0.021647343412041664, -0.05869041383266449, -0.11054960638284683, 0.10852688550949097, 0.052372097969055176, -0.05092950910329819, -0.046789366751909256, 0.022656148299574852, -0.04429933801293373, -0.00611727312207222, -0.04893447831273079, 0.03366928920149803, 0.026232780888676643, -0.00017808593111112714, -0.04176343232393265, 0.07670631259679794, 0.03200303763151169, 0.031241606920957565, -0.0679020956158638, -0.14431707561016083, 0.03072240948677063, 0.04328688234090805, -0.04673880711197853, -0.040159229189157486, -0.004641939885914326, -0.043417878448963165, -0.02063659578561783, 0.029228150844573975, -0.045977331697940826, -0.009853595867753029, -0.04468972608447075, -0.13608430325984955, -0.003744710935279727, 0.04060667008161545, 0.07170075178146362, -0.0643918588757515, -0.023129234090447426, 0.05964355170726776, 0.012585822492837906, 0.03947417065501213], [-0.004908121656626463, -0.025504395365715027, 0.06356438994407654, 0.19983519613742828, -0.03926403447985649, 0.14486204087734222, 0.15978610515594482, -0.05786178261041641, 0.14635828137397766, 0.16525650024414062, -0.17152690887451172, 0.1474825143814087, 0.1984674334526062, -0.04160656780004501, 0.06757903844118118, 0.08757870644330978, -0.038182150572538376, 0.07633480429649353, 0.15730753540992737, -0.0980500802397728, 0.15376223623752594, 0.19021841883659363, -0.15141451358795166, 0.059283673763275146, 0.169975146651268, -0.07141038030385971, 0.10055691003799438, -0.07917098701000214, -0.13960857689380646, 0.04108041524887085, -0.10785181075334549, -0.02629069611430168, 0.06805286556482315, 0.015143166296184063, -0.08461719006299973, 0.17492710053920746, 0.05023925006389618, -0.010242742486298084, 0.08091481029987335, -0.16966846585273743, -0.09881722182035446, 0.03302554786205292, -0.21683333814144135, -0.007890412583947182, 0.11607762426137924, -0.12768134474754333, 0.007494769524782896, 0.17189499735832214, 0.03623824566602707, -0.04513947665691376, 0.18208010494709015, -0.14042840898036957, -0.08486253023147583, 0.062068596482276917, -0.20488204061985016, -0.09257631003856659, 0.16465972363948822, -0.10282887518405914, -0.011367681436240673, 0.21217718720436096, -0.08237970620393753, -0.14216908812522888, 0.15485133230686188, -0.013205152004957199, -0.02154991775751114, 0.008349524810910225, 